{"learner":{"attributes":{},"feature_names":["inning","pitcher","season","days_rest","hits_allowed_roll3","walks_roll3","strikeouts_roll3","batters_faced_roll3","runs_allowed_roll3","ERA_season","WHIP_season","FIP_season","K/9_season","BB/9_season","xFIP_season","CSW%_season","xERA_season","runs_rolling10_team","OBP_team","SLG_team","K_rate_team","BB_rate_team","runs_1st_roll5","OBP_team_roll5","SLG_team_roll5","K_rate_team_roll5","BB_rate_team_roll5","is_home_team"],"feature_types":["int","int","int","float","float","float","float","float","float","float","float","float","float","float","float","float","float","float","float","float","float","float","float","float","float","float","float","i"],"gradient_booster":{"model":{"gbtree_model_param":{"num_parallel_tree":"1","num_trees":"500"},"iteration_indptr":[0,1,2,3,4,5,6,7,8,9,10,11,12,13,14,15,16,17,18,19,20,21,22,23,24,25,26,27,28,29,30,31,32,33,34,35,36,37,38,39,40,41,42,43,44,45,46,47,48,49,50,51,52,53,54,55,56,57,58,59,60,61,62,63,64,65,66,67,68,69,70,71,72,73,74,75,76,77,78,79,80,81,82,83,84,85,86,87,88,89,90,91,92,93,94,95,96,97,98,99,100,101,102,103,104,105,106,107,108,109,110,111,112,113,114,115,116,117,118,119,120,121,122,123,124,125,126,127,128,129,130,131,132,133,134,135,136,137,138,139,140,141,142,143,144,145,146,147,148,149,150,151,152,153,154,155,156,157,158,159,160,161,162,163,164,165,166,167,168,169,170,171,172,173,174,175,176,177,178,179,180,181,182,183,184,185,186,187,188,189,190,191,192,193,194,195,196,197,198,199,200,201,202,203,204,205,206,207,208,209,210,211,212,213,214,215,216,217,218,219,220,221,222,223,224,225,226,227,228,229,230,231,232,233,234,235,236,237,238,239,240,241,242,243,244,245,246,247,248,249,250,251,252,253,254,255,256,257,258,259,260,261,262,263,264,265,266,267,268,269,270,271,272,273,274,275,276,277,278,279,280,281,282,283,284,285,286,287,288,289,290,291,292,293,294,295,296,297,298,299,300,301,302,303,304,305,306,307,308,309,310,311,312,313,314,315,316,317,318,319,320,321,322,323,324,325,326,327,328,329,330,331,332,333,334,335,336,337,338,339,340,341,342,343,344,345,346,347,348,349,350,351,352,353,354,355,356,357,358,359,360,361,362,363,364,365,366,367,368,369,370,371,372,373,374,375,376,377,378,379,380,381,382,383,384,385,386,387,388,389,390,391,392,393,394,395,396,397,398,399,400,401,402,403,404,405,406,407,408,409,410,411,412,413,414,415,416,417,418,419,420,421,422,423,424,425,426,427,428,429,430,431,432,433,434,435,436,437,438,439,440,441,442,443,444,445,446,447,448,449,450,451,452,453,454,455,456,457,458,459,460,461,462,463,464,465,466,467,468,469,470,471,472,473,474,475,476,477,478,479,480,481,482,483,484,485,486,487,488,489,490,491,492,493,494,495,496,497,498,499,500],"tree_info":[0,0,0,0,0,0,0,0,0,0,0,0,0,0,0,0,0,0,0,0,0,0,0,0,0,0,0,0,0,0,0,0,0,0,0,0,0,0,0,0,0,0,0,0,0,0,0,0,0,0,0,0,0,0,0,0,0,0,0,0,0,0,0,0,0,0,0,0,0,0,0,0,0,0,0,0,0,0,0,0,0,0,0,0,0,0,0,0,0,0,0,0,0,0,0,0,0,0,0,0,0,0,0,0,0,0,0,0,0,0,0,0,0,0,0,0,0,0,0,0,0,0,0,0,0,0,0,0,0,0,0,0,0,0,0,0,0,0,0,0,0,0,0,0,0,0,0,0,0,0,0,0,0,0,0,0,0,0,0,0,0,0,0,0,0,0,0,0,0,0,0,0,0,0,0,0,0,0,0,0,0,0,0,0,0,0,0,0,0,0,0,0,0,0,0,0,0,0,0,0,0,0,0,0,0,0,0,0,0,0,0,0,0,0,0,0,0,0,0,0,0,0,0,0,0,0,0,0,0,0,0,0,0,0,0,0,0,0,0,0,0,0,0,0,0,0,0,0,0,0,0,0,0,0,0,0,0,0,0,0,0,0,0,0,0,0,0,0,0,0,0,0,0,0,0,0,0,0,0,0,0,0,0,0,0,0,0,0,0,0,0,0,0,0,0,0,0,0,0,0,0,0,0,0,0,0,0,0,0,0,0,0,0,0,0,0,0,0,0,0,0,0,0,0,0,0,0,0,0,0,0,0,0,0,0,0,0,0,0,0,0,0,0,0,0,0,0,0,0,0,0,0,0,0,0,0,0,0,0,0,0,0,0,0,0,0,0,0,0,0,0,0,0,0,0,0,0,0,0,0,0,0,0,0,0,0,0,0,0,0,0,0,0,0,0,0,0,0,0,0,0,0,0,0,0,0,0,0,0,0,0,0,0,0,0,0,0,0,0,0,0,0,0,0,0,0,0,0,0,0,0,0,0,0,0,0,0,0,0,0,0,0,0,0,0,0,0,0,0,0,0,0,0,0,0,0,0,0,0,0,0,0,0,0,0,0,0,0,0,0,0,0,0,0,0,0,0,0,0,0,0,0,0,0,0,0,0,0,0,0,0,0,0,0,0,0,0,0,0,0],"trees":[{"base_weights":[2.7118586E-2,-3.2969043E-1,4.5769596E-1,-6.765042E-1,-9.7627565E-2,8.0168843E-1,3.6505556E-1,-9.034662E-3,-3.0165433E-3,1.6926092E-3,-2.9972827E-3,8.682252E-3,-8.735963E-3,4.44527E-3,5.311303E-4],"categories":[],"categories_nodes":[],"categories_segments":[],"categories_sizes":[],"default_left":[0,0,0,0,0,0,0,0,0,0,0,0,0,0,0],"id":0,"left_children":[1,3,5,7,9,11,13,-1,-1,-1,-1,-1,-1,-1,-1],"loss_changes":[1.0420575E2,2.9789265E1,9.501442E0,1.2364845E1,1.2101242E1,7.933861E0,6.0244293E0,0E0,0E0,0E0,0E0,0E0,0E0,0E0,0E0],"parents":[2147483647,0,0,1,1,2,2,3,3,4,4,5,5,6,6],"right_children":[2,4,6,8,10,12,14,-1,-1,-1,-1,-1,-1,-1,-1],"split_conditions":[4.390244E-1,2.972973E-1,7.65E0,1.22E0,8.53E0,1.2E1,3.3333333E0,-9.034662E-3,-3.0165433E-3,1.6926092E-3,-2.9972827E-3,8.682252E-3,-8.735963E-3,4.44527E-3,5.311303E-4],"split_indices":[19,19,12,10,12,3,8,0,0,0,0,0,0,0,0],"split_type":[0,0,0,0,0,0,0,0,0,0,0,0,0,0,0],"sum_hessian":[6.7629095E2,3.6995367E2,3.0633728E2,1.4754105E2,2.2241261E2,6.3371693E1,2.429656E2,9.102035E1,5.65207E1,9.591391E1,1.264987E2,6.1414265E1,1.9574268E0,1.932959E2,4.9669704E1],"tree_param":{"num_deleted":"0","num_feature":"28","num_nodes":"15","size_leaf_vector":"1"}},{"base_weights":[4.7887173E-3,-3.2070524E-1,4.083989E-1,-7.1165305E-1,-1.2836435E-1,8.5877866E-1,3.03248E-1,-8.947565E-3,-4.910023E-4,1.5532552E-3,-3.6920279E-3,2.3899868E-3,1.0117107E-2,1.530057E-3,5.875254E-3],"categories":[],"categories_nodes":[],"categories_segments":[],"categories_sizes":[],"default_left":[0,0,0,0,0,0,0,0,0,0,0,0,0,0,0],"id":1,"left_children":[1,3,5,7,9,11,13,-1,-1,-1,-1,-1,-1,-1,-1],"loss_changes":[8.865481E1,2.799981E1,1.4006657E1,1.4873981E1,1.7248114E1,5.1113205E0,1.0407675E1,0E0,0E0,0E0,0E0,0E0,0E0,0E0,0E0],"parents":[2147483647,0,0,1,1,2,2,3,3,4,4,5,5,6,6],"right_children":[2,4,6,8,10,12,14,-1,-1,-1,-1,-1,-1,-1,-1],"split_conditions":[4.390244E-1,2.777778E-1,7.48E0,4.48E0,8.66E0,4.7619048E-1,3.8E-1,-8.947565E-3,-4.910023E-4,1.5532552E-3,-3.6920279E-3,2.3899868E-3,1.0117107E-2,1.530057E-3,5.875254E-3],"split_indices":[19,19,12,16,12,19,18,0,0,0,0,0,0,0,0],"split_type":[0,0,0,0,0,0,0,0,0,0,0,0,0,0,0],"sum_hessian":[6.7283746E2,3.7257632E2,3.002611E2,1.2196765E2,2.5060867E2,5.5476868E1,2.4478424E2,9.528435E1,2.6683306E1,1.15230606E2,1.3537807E2,1.1486978E1,4.398989E1,1.6115247E2,8.3631775E1],"tree_param":{"num_deleted":"0","num_feature":"28","num_nodes":"15","size_leaf_vector":"1"}},{"base_weights":[-3.1291724E-3,-5.811955E-1,1.9825901E-1,-8.1613874E-1,-1.8052989E-1,-3.9382767E-2,3.9387247E-1,-9.5703155E-3,-1.1643461E-3,-5.1663243E-3,2.7024208E-3,3.231401E-3,-2.9838895E-3,7.8123E-3,2.8610523E-3],"categories":[],"categories_nodes":[],"categories_segments":[],"categories_sizes":[],"default_left":[0,0,0,0,0,0,0,0,0,0,0,0,0,0,0],"id":2,"left_children":[1,3,5,7,9,11,13,-1,-1,-1,-1,-1,-1,-1,-1],"loss_changes":[7.9071266E1,1.6371979E1,2.34322E1,1.0765984E1,1.0161779E1,2.1537018E1,1.1314327E1,0E0,0E0,0E0,0E0,0E0,0E0,0E0,0E0],"parents":[2147483647,0,0,1,1,2,2,3,3,4,4,5,5,6,6],"right_children":[2,4,6,8,10,12,14,-1,-1,-1,-1,-1,-1,-1,-1],"split_conditions":[3.0769232E-1,4.08E0,4.5238096E-1,2.790558E-1,2.5714287E-1,8.52E0,7.65E0,-9.5703155E-3,-1.1643461E-3,-5.1663243E-3,2.7024208E-3,3.231401E-3,-2.9838895E-3,7.8123E-3,2.8610523E-3],"split_indices":[19,14,19,25,19,12,12,0,0,0,0,0,0,0,0],"split_type":[0,0,0,0,0,0,0,0,0,0,0,0,0,0,0],"sum_hessian":[6.7722485E2,1.7448778E2,5.027371E2,1.09337326E2,6.5150444E1,2.2734491E2,2.7539218E2,9.0705124E1,1.8632204E1,3.723864E1,2.7911806E1,9.463693E1,1.3270798E2,5.858076E1,2.1681142E2],"tree_param":{"num_deleted":"0","num_feature":"28","num_nodes":"15","size_leaf_vector":"1"}},{"base_weights":[6.80417E-3,-3.0614266E-1,4.1843027E-1,6.3813396E-2,-5.0348836E-1,2.9548886E-1,8.739226E-1,-1.4635293E-3,7.6765683E-3,-8.906396E-3,-2.965866E-3,9.379057E-3,2.2315981E-3,-4.385074E-3,9.807524E-3],"categories":[],"categories_nodes":[],"categories_segments":[],"categories_sizes":[],"default_left":[0,0,0,0,0,0,0,0,0,0,0,0,0,0,0],"id":3,"left_children":[1,3,5,7,9,11,13,-1,-1,-1,-1,-1,-1,-1,-1],"loss_changes":[8.843779E1,2.8508007E1,1.6346115E1,2.0313843E1,2.0119034E1,1.071015E1,9.194447E0,0E0,0E0,0E0,0E0,0E0,0E0,0E0,0E0],"parents":[2147483647,0,0,1,1,2,2,3,3,4,4,5,5,6,6],"right_children":[2,4,6,8,10,12,14,-1,-1,-1,-1,-1,-1,-1,-1],"split_conditions":[4.4444445E-1,8.36E0,4.0816328E-1,3.265306E-1,2.857143E-1,3.2207778E-1,3.22E0,-1.4635293E-3,7.6765683E-3,-8.906396E-3,-2.965866E-3,9.379057E-3,2.2315981E-3,-4.385074E-3,9.807524E-3],"split_indices":[19,12,18,18,19,24,16,0,0,0,0,0,0,0,0],"split_type":[0,0,0,0,0,0,0,0,0,0,0,0,0,0,0],"sum_hessian":[6.845433E2,3.8903104E2,2.9551224E2,1.3556654E2,2.5346451E2,2.3400182E2,6.151044E1,1.0500447E2,3.0562069E1,8.712777E1,1.6633675E2,2.2468895E1,2.1153291E2,4.396285E0,5.7114155E1],"tree_param":{"num_deleted":"0","num_feature":"28","num_nodes":"15","size_leaf_vector":"1"}},{"base_weights":[-2.5638891E-3,-4.1350234E-1,1.1816707E-1,-6.041519E-1,1.05178885E-1,5.2769625E-1,2.8487422E-2,-1.0892072E-2,-4.450053E-3,3.8570848E-3,-5.2375933E-3,6.8204533E-3,1.1914433E-3,-2.4910783E-4,4.4064433E-3],"categories":[],"categories_nodes":[],"categories_segments":[],"categories_sizes":[],"default_left":[0,0,0,0,0,0,0,0,0,0,0,0,0,0,0],"id":4,"left_children":[1,3,5,7,9,11,13,-1,-1,-1,-1,-1,-1,-1,-1],"loss_changes":[3.3767056E1,1.53464985E1,1.9305775E1,8.250652E0,7.681291E0,5.8746376E0,9.532377E0,0E0,0E0,0E0,0E0,0E0,0E0,0E0,0E0],"parents":[2147483647,0,0,1,1,2,2,3,3,4,4,5,5,6,6],"right_children":[2,4,6,8,10,12,14,-1,-1,-1,-1,-1,-1,-1,-1],"split_conditions":[3E-1,4.37E0,7.48E0,4.918033E-2,3.0952382E-1,2.5888115E-1,2.8586414E-1,-1.0892072E-2,-4.450053E-3,3.8570848E-3,-5.2375933E-3,6.8204533E-3,1.1914433E-3,-2.4910783E-4,4.4064433E-3],"split_indices":[17,16,12,21,20,25,25,0,0,0,0,0,0,0,0],"split_type":[0,0,0,0,0,0,0,0,0,0,0,0,0,0,0],"sum_hessian":[6.786243E2,1.5355067E2,5.2507367E2,1.1215977E2,4.1390903E1,9.344868E1,4.3162497E2,2.6264723E1,8.589504E1,2.8891129E1,1.2499774E1,6.733891E1,2.610977E1,3.829503E2,4.867469E1],"tree_param":{"num_deleted":"0","num_feature":"28","num_nodes":"15","size_leaf_vector":"1"}},{"base_weights":[9.792629E-3,-3.313068E-1,4.2249647E-1,-7.539006E-1,-1.3098319E-1,2.133535E-1,5.9700066E-1,-9.154956E-3,-2.2634098E-3,2.1186126E-3,-3.4068297E-3,8.68626E-3,1.2345447E-3,1.2032349E-3,7.311242E-3],"categories":[],"categories_nodes":[],"categories_segments":[],"categories_sizes":[],"default_left":[0,0,0,0,0,0,0,0,0,0,0,0,0,0,0],"id":5,"left_children":[1,3,5,7,9,11,13,-1,-1,-1,-1,-1,-1,-1,-1],"loss_changes":[9.681123E1,3.1777012E1,1.1229637E1,1.00978775E1,1.8524284E1,8.322504E0,1.0722118E1,0E0,0E0,0E0,0E0,0E0,0E0,0E0,0E0],"parents":[2147483647,0,0,1,1,2,2,3,3,4,4,5,5,6,6],"right_children":[2,4,6,8,10,12,14,-1,-1,-1,-1,-1,-1,-1,-1],"split_conditions":[4.390244E-1,2.7272728E-1,3.5416666E-1,4.48E0,8.42E0,3.205044E-1,7.512644E-2,-9.154956E-3,-2.2634098E-3,2.1186126E-3,-3.4068297E-3,8.68626E-3,1.2345447E-3,1.2032349E-3,7.311242E-3],"split_indices":[19,19,18,16,12,24,26,0,0,0,0,0,0,0,0],"split_type":[0,0,0,0,0,0,0,0,0,0,0,0,0,0,0],"sum_hessian":[6.857172E2,3.7553503E2,3.101822E2,1.1987938E2,2.5565564E2,1.4209921E2,1.68083E2,9.120679E1,2.867259E1,9.702168E1,1.5863396E2,1.609811E1,1.260011E2,3.7325325E1,1.3075766E2],"tree_param":{"num_deleted":"0","num_feature":"28","num_nodes":"15","size_leaf_vector":"1"}},{"base_weights":[2.0659058E-3,-7.777857E-1,1.69072E-1,-9.7232074E-1,-2.7300462E-1,-4.4901734E-3,5.008459E-1,-1.0194829E-2,-1.2173904E-3,-3.8105126E-3,7.403262E-3,-7.3120435E-4,3.858575E-3,2.1290283E-3,7.860642E-3],"categories":[],"categories_nodes":[],"categories_segments":[],"categories_sizes":[],"default_left":[0,0,0,0,0,0,0,0,0,0,0,0,0,0,0],"id":6,"left_children":[1,3,5,7,9,11,13,-1,-1,-1,-1,-1,-1,-1,-1],"loss_changes":[8.879877E1,1.1543549E1,3.233773E1,3.3424072E0,4.0970097E0,9.931451E0,1.5672855E1,0E0,0E0,0E0,0E0,0E0,0E0,0E0,0E0],"parents":[2147483647,0,0,1,1,2,2,3,3,4,4,5,5,6,6],"right_children":[2,4,6,8,10,12,14,-1,-1,-1,-1,-1,-1,-1,-1],"split_conditions":[2.7272728E-1,4.33E0,5.121951E-1,4.047619E-1,8E0,4.65E0,3.68E0,-1.0194829E-2,-1.2173904E-3,-3.8105126E-3,7.403262E-3,-7.3120435E-4,3.858575E-3,2.1290283E-3,7.860642E-3],"split_indices":[19,16,19,20,3,16,9,0,0,0,0,0,0,0,0],"split_type":[0,0,0,0,0,0,0,0,0,0,0,0,0,0,0],"sum_hessian":[6.797992E2,1.1925744E2,5.6054175E2,8.541396E1,3.384348E1,3.6866632E2,1.9187541E2,8.073868E1,4.675283E0,3.1146442E1,2.6970356E0,3.1423138E2,5.4434948E1,9.63507E1,9.5524704E1],"tree_param":{"num_deleted":"0","num_feature":"28","num_nodes":"15","size_leaf_vector":"1"}},{"base_weights":[5.0342816E-4,-3.9665204E-1,2.8015286E-1,-1.065009E-1,-5.975462E-1,2.640557E-2,4.536847E-1,-8.879193E-3,2.7240353E-4,-8.586275E-3,-3.8927468E-3,5.132984E-3,-8.04486E-4,8.84705E-3,3.237916E-3],"categories":[],"categories_nodes":[],"categories_segments":[],"categories_sizes":[],"default_left":[0,0,0,0,0,0,0,0,0,0,0,0,0,0,0],"id":7,"left_children":[1,3,5,7,9,11,13,-1,-1,-1,-1,-1,-1,-1,-1],"loss_changes":[7.648019E1,1.6521431E1,1.778109E1,1.2316594E1,8.7958145E0,8.634664E0,1.3145275E1,0E0,0E0,0E0,0E0,0E0,0E0,0E0,0E0],"parents":[2147483647,0,0,1,1,2,2,3,3,4,4,5,5,6,6],"right_children":[2,4,6,8,10,12,14,-1,-1,-1,-1,-1,-1,-1,-1],"split_conditions":[3.846154E-1,8.53E0,3.3962265E-1,1.9444445E-1,2.777778E-1,3.39E0,7.65E0,-8.879193E-3,2.7240353E-4,-8.586275E-3,-3.8927468E-3,5.132984E-3,-8.04486E-4,8.84705E-3,3.237916E-3],"split_indices":[19,12,18,18,19,14,12,0,0,0,0,0,0,0,0],"split_type":[0,0,0,0,0,0,0,0,0,0,0,0,0,0,0],"sum_hessian":[6.866112E2,2.8352844E2,4.0308276E2,1.16621826E2,1.669066E2,1.6417285E2,2.3890993E2,1.6218996E1,1.0040283E2,7.26778E1,9.4228806E1,2.886096E1,1.3531189E2,5.39797E1,1.8493024E2],"tree_param":{"num_deleted":"0","num_feature":"28","num_nodes":"15","size_leaf_vector":"1"}},{"base_weights":[-1.3936151E-2,-4.176929E-1,2.7611852E-1,-5.825992E-1,8.2395144E-2,1.1924225E-1,5.667994E-1,-8.8744E-3,-3.4000038E-3,-6.009331E-4,7.803464E-3,-1.9715601E-4,3.8904788E-3,6.4749997E-3,-5.3833686E-3],"categories":[],"categories_nodes":[],"categories_segments":[],"categories_sizes":[],"default_left":[0,0,0,0,0,0,0,0,0,0,0,0,0,0,0],"id":8,"left_children":[1,3,5,7,9,11,13,-1,-1,-1,-1,-1,-1,-1,-1],"loss_changes":[8.009723E1,2.3626663E1,1.8083454E1,1.5608482E1,7.1851635E0,9.747519E0,1.2767921E1,0E0,0E0,0E0,0E0,0E0,0E0,0E0,0E0],"parents":[2147483647,0,0,1,1,2,2,3,3,4,4,5,5,6,6],"right_children":[2,4,6,8,10,12,14,-1,-1,-1,-1,-1,-1,-1,-1],"split_conditions":[3.846154E-1,4.37E0,3.7254903E-1,2.777778E-1,3.255814E-1,1.0310245E-1,8.333333E0,-8.8744E-3,-3.4000038E-3,-6.009331E-4,7.803464E-3,-1.9715601E-4,3.8904788E-3,6.4749997E-3,-5.3833686E-3],"split_indices":[19,16,18,19,18,26,6,0,0,0,0,0,0,0,0],"split_type":[0,0,0,0,0,0,0,0,0,0,0,0,0,0,0],"sum_hessian":[6.8195496E2,2.84914E2,3.97041E2,2.1413652E2,7.077747E1,2.5878738E2,1.382536E2,9.371705E1,1.20419464E2,5.9536793E1,1.1240682E1,1.7142525E2,8.736212E1,1.2923085E2,9.022751E0],"tree_param":{"num_deleted":"0","num_feature":"28","num_nodes":"15","size_leaf_vector":"1"}},{"base_weights":[1.6108114E-2,-6.55889E-1,1.7956297E-1,-8.977284E-1,-2.5930327E-1,-3.656826E-2,4.218518E-1,-1.171957E-2,-5.803141E-3,-1.0429687E-2,-7.2665315E-4,-1.6407884E-3,2.2586205E-3,2.1414133E-3,6.987793E-3],"categories":[],"categories_nodes":[],"categories_segments":[],"categories_sizes":[],"default_left":[0,0,0,0,0,0,0,0,0,0,0,0,0,0,0],"id":9,"left_children":[1,3,5,7,9,11,13,-1,-1,-1,-1,-1,-1,-1,-1],"loss_changes":[7.442359E1,1.2481823E1,2.855061E1,6.4526596E0,7.4747906E0,9.705251E0,1.4632698E1,0E0,0E0,0E0,0E0,0E0,0E0,0E0,0E0],"parents":[2147483647,0,0,1,1,2,2,3,3,4,4,5,5,6,6],"right_children":[2,4,6,8,10,12,14,-1,-1,-1,-1,-1,-1,-1,-1],"split_conditions":[2.857143E-1,1.22E0,3.3962265E-1,2.1875E-1,1.5151516E-1,4.5E-1,3.91E0,-1.171957E-2,-5.803141E-3,-1.0429687E-2,-7.2665315E-4,-1.6407884E-3,2.2586205E-3,2.1414133E-3,6.987793E-3],"split_indices":[19,10,18,19,19,19,11,0,0,0,0,0,0,0,0],"split_type":[0,0,0,0,0,0,0,0,0,0,0,0,0,0,0],"sum_hessian":[6.7548425E2,1.3156801E2,5.4391626E2,8.094426E1,5.0623745E1,2.8792493E2,2.5599133E2,4.1981937E1,3.896232E1,8.854942E0,4.1768803E1,1.9402576E2,9.3899155E1,1.4728954E2,1.087018E2],"tree_param":{"num_deleted":"0","num_feature":"28","num_nodes":"15","size_leaf_vector":"1"}},{"base_weights":[1.9031906E-3,-2.562529E-1,3.5572907E-1,-6.4169776E-1,-1.3051726E-1,1.8590479E-1,5.8977216E-1,-7.037387E-3,8.7644225E-3,-1.6569137E-3,6.0211653E-3,-6.98724E-4,4.0274113E-3,4.404627E-3,9.5614195E-3],"categories":[],"categories_nodes":[],"categories_segments":[],"categories_sizes":[],"default_left":[0,0,0,0,0,0,0,0,0,0,0,0,0,0,0],"id":10,"left_children":[1,3,5,7,9,11,13,-1,-1,-1,-1,-1,-1,-1,-1],"loss_changes":[6.154021E1,1.8794569E1,1.1186317E1,9.61713E0,7.7011566E0,9.243496E0,6.090927E0,0E0,0E0,0E0,0E0,0E0,0E0,0E0,0E0],"parents":[2147483647,0,0,1,1,2,2,3,3,4,4,5,5,6,6],"right_children":[2,4,6,8,10,12,14,-1,-1,-1,-1,-1,-1,-1,-1],"split_conditions":[3.2786885E-1,2.3255815E-1,1.0065584E-1,3.6721286E-1,3.7847933E-1,3.64E0,2.5500247E-1,-7.037387E-3,8.7644225E-3,-1.6569137E-3,6.0211653E-3,-6.98724E-4,4.0274113E-3,4.404627E-3,9.5614195E-3],"split_indices":[18,18,26,23,23,9,25,0,0,0,0,0,0,0,0],"split_type":[0,0,0,0,0,0,0,0,0,0,0,0,0,0,0],"sum_hessian":[6.7173376E2,3.8853162E2,2.8320215E2,9.4558235E1,2.939734E2,1.6515681E2,1.1804532E2,9.136108E1,3.1971574E0,2.8124454E2,1.2728852E1,7.608535E1,8.9071465E1,8.543116E1,3.2614166E1],"tree_param":{"num_deleted":"0","num_feature":"28","num_nodes":"15","size_leaf_vector":"1"}},{"base_weights":[-2.5993135E-2,3.4115145E-1,-1.2902795E-1,3.681733E-3,4.6553835E-1,-1.8082608E-1,2.096282E-1,-7.094217E-3,4.171733E-3,1.2892204E-3,6.9680754E-3,1.3725832E-3,-2.5142368E-3,7.2772807E-4,7.858552E-3],"categories":[],"categories_nodes":[],"categories_segments":[],"categories_sizes":[],"default_left":[0,0,0,0,0,0,0,0,0,0,0,0,0,0,0],"id":11,"left_children":[1,3,5,7,9,11,13,-1,-1,-1,-1,-1,-1,-1,-1],"loss_changes":[2.5614807E1,6.2278347E0,9.3097515E0,1.2378281E1,8.351208E0,1.0341277E1,5.508918E0,0E0,0E0,0E0,0E0,0E0,0E0,0E0,0E0],"parents":[2147483647,0,0,1,1,2,2,3,3,4,4,5,5,6,6],"right_children":[2,4,6,8,10,12,14,-1,-1,-1,-1,-1,-1,-1,-1],"split_conditions":[7.65E0,2E0,4.52E0,4.37E0,8.94159E-2,1.3333334E0,9.333333E0,-7.094217E-3,4.171733E-3,1.2892204E-3,6.9680754E-3,1.3725832E-3,-2.5142368E-3,7.2772807E-4,7.858552E-3],"split_indices":[12,8,16,16,26,8,7,0,0,0,0,0,0,0,0],"split_type":[0,0,0,0,0,0,0,0,0,0,0,0,0,0,0],"sum_hessian":[6.7496313E2,1.4740454E2,5.275586E2,3.9976177E1,1.0742837E2,4.5797623E2,6.958233E1,1.4409688E1,2.556649E1,4.4384064E1,6.3044304E1,8.3012245E1,3.74964E2,5.7138165E1,1.2444167E1],"tree_param":{"num_deleted":"0","num_feature":"28","num_nodes":"15","size_leaf_vector":"1"}},{"base_weights":[-9.244585E-3,-2.9491583E-1,3.5476008E-1,-6.786646E-1,-1.15005866E-1,7.1899784E-1,2.61138E-1,-4.987099E-3,-1.1554248E-2,1.93587E-3,-3.255552E-3,-2.727731E-3,7.915206E-3,-9.998923E-3,2.808952E-3],"categories":[],"categories_nodes":[],"categories_segments":[],"categories_sizes":[],"default_left":[0,0,0,0,0,0,0,0,0,0,0,0,0,0,0],"id":12,"left_children":[1,3,5,7,9,11,13,-1,-1,-1,-1,-1,-1,-1,-1],"loss_changes":[7.100439E1,2.6334118E1,1.0051334E1,9.882477E0,1.7064064E1,4.590893E0,6.2711506E0,0E0,0E0,0E0,0E0,0E0,0E0,0E0,0E0],"parents":[2147483647,0,0,1,1,2,2,3,3,4,4,5,5,6,6],"right_children":[2,4,6,8,10,12,14,-1,-1,-1,-1,-1,-1,-1,-1],"split_conditions":[4.4444445E-1,2.7272728E-1,7.65E0,9.72E0,8.52E0,4.5238096E-1,1.08E0,-4.987099E-3,-1.1554248E-2,1.93587E-3,-3.255552E-3,-2.727731E-3,7.915206E-3,-9.998923E-3,2.808952E-3],"split_indices":[19,19,12,12,12,19,13,0,0,0,0,0,0,0,0],"split_type":[0,0,0,0,0,0,0,0,0,0,0,0,0,0,0],"sum_hessian":[6.808225E2,3.8156204E2,2.992605E2,1.2090304E2,2.6065903E2,5.98262E1,2.3943428E2,8.925826E1,3.1644777E1,1.0574857E2,1.5491045E2,3.888507E0,5.593769E1,2.9282131E0,2.3650607E2],"tree_param":{"num_deleted":"0","num_feature":"28","num_nodes":"15","size_leaf_vector":"1"}},{"base_weights":[-2.6633563E-2,-3.068687E-1,3.4528422E-1,9.49277E-3,-5.202742E-1,8.400296E-1,2.2736117E-1,-1.304631E-3,8.256152E-3,-8.149564E-3,-3.1879896E-3,9.279353E-3,-6.6327057E-3,5.729388E-4,4.9617565E-3],"categories":[],"categories_nodes":[],"categories_segments":[],"categories_sizes":[],"default_left":[0,0,0,0,0,0,0,0,0,0,0,0,0,0,0],"id":13,"left_children":[1,3,5,7,9,11,13,-1,-1,-1,-1,-1,-1,-1,-1],"loss_changes":[7.088072E1,2.61861E1,1.6860497E1,1.8062849E1,1.3490353E1,8.000343E0,1.0824009E1,0E0,0E0,0E0,0E0,0E0,0E0,0E0,0E0],"parents":[2147483647,0,0,1,1,2,2,3,3,4,4,5,5,6,6],"right_children":[2,4,6,8,10,12,14,-1,-1,-1,-1,-1,-1,-1,-1],"split_conditions":[4.473684E-1,8.42E0,7.56E0,3.4146342E-1,2.972973E-1,1.1E1,3.7777779E-1,-1.304631E-3,8.256152E-3,-8.149564E-3,-3.1879896E-3,9.279353E-3,-6.6327057E-3,5.729388E-4,4.9617565E-3],"split_indices":[19,12,12,18,19,3,18,0,0,0,0,0,0,0,0],"split_type":[0,0,0,0,0,0,0,0,0,0,0,0,0,0,0],"sum_hessian":[6.7806116E2,3.867928E2,2.9126837E2,1.5619627E2,2.3059653E2,5.48831E1,2.3638527E2,1.3404858E2,2.214769E1,9.240213E1,1.381944E2,5.2212692E1,2.6704082E0,1.455287E2,9.085657E1],"tree_param":{"num_deleted":"0","num_feature":"28","num_nodes":"15","size_leaf_vector":"1"}},{"base_weights":[5.323597E-3,-2.7311584E-1,3.8827E-1,-1.3106673E0,-2.1145499E-1,7.455721E-1,2.9301494E-1,-1.52805345E-2,-3.119621E-4,-1.6415949E-3,-1.2279196E-2,1.7331545E-3,8.654886E-3,5.11007E-3,9.5419405E-4],"categories":[],"categories_nodes":[],"categories_segments":[],"categories_sizes":[],"default_left":[0,0,0,0,0,0,0,0,0,0,0,0,0,0,0],"id":14,"left_children":[1,3,5,7,9,11,13,-1,-1,-1,-1,-1,-1,-1,-1],"loss_changes":[7.292037E1,2.5056332E1,9.580292E0,6.0770836E0,1.7824402E1,3.9640198E0,9.813211E0,0E0,0E0,0E0,0E0,0E0,0E0,0E0,0E0],"parents":[2147483647,0,0,1,1,2,2,3,3,4,4,5,5,6,6],"right_children":[2,4,6,8,10,12,14,-1,-1,-1,-1,-1,-1,-1,-1],"split_conditions":[3.272727E-1,1.7073171E-1,7.56E0,7.3333335E0,1.521739E-1,1.6666666E0,2.3333333E0,-1.52805345E-2,-3.119621E-4,-1.6415949E-3,-1.2279196E-2,1.7331545E-3,8.654886E-3,5.11007E-3,9.5419405E-4],"split_indices":[18,18,12,6,21,8,8,0,0,0,0,0,0,0,0],"split_type":[0,0,0,0,0,0,0,0,0,0,0,0,0,0,0],"sum_hessian":[6.8188586E2,3.949821E2,2.8690378E2,2.1020449E1,3.7396164E2,5.8951054E1,2.2795271E2,1.7801613E1,3.2188363E0,3.5844492E2,1.5516726E1,1.0636703E1,4.831435E1,1.0762839E2,1.20324326E2],"tree_param":{"num_deleted":"0","num_feature":"28","num_nodes":"15","size_leaf_vector":"1"}},{"base_weights":[-1.2602518E-2,-3.1425673E-1,3.6040968E-1,5.5479236E-2,-5.515524E-1,7.05284E-1,2.642763E-1,-9.401997E-3,1.7713517E-3,-9.093595E-3,-3.308328E-3,7.8752E-3,-4.8366487E-3,6.157363E-4,4.7439146E-3],"categories":[],"categories_nodes":[],"categories_segments":[],"categories_sizes":[],"default_left":[0,0,0,0,0,0,0,0,0,0,0,0,0,0,0],"id":15,"left_children":[1,3,5,7,9,11,13,-1,-1,-1,-1,-1,-1,-1,-1],"loss_changes":[7.678498E1,3.3131023E1,9.929909E0,1.8140789E1,1.7854103E1,6.825699E0,1.0201817E1,0E0,0E0,0E0,0E0,0E0,0E0,0E0,0E0],"parents":[2147483647,0,0,1,1,2,2,3,3,4,4,5,5,6,6],"right_children":[2,4,6,8,10,12,14,-1,-1,-1,-1,-1,-1,-1,-1],"split_conditions":[4.390244E-1,8.42E0,7.65E0,1.9444445E-1,2.8947368E-1,1.1E1,2.3445822E-1,-9.401997E-3,1.7713517E-3,-9.093595E-3,-3.308328E-3,7.8752E-3,-4.8366487E-3,6.157363E-4,4.7439146E-3],"split_indices":[19,12,12,18,19,3,25,0,0,0,0,0,0,0,0],"split_type":[0,0,0,0,0,0,0,0,0,0,0,0,0,0,0],"sum_hessian":[6.80401E2,3.7626984E2,3.0413116E2,1.4738774E2,2.288821E2,6.4914986E1,2.3921619E2,1.531506E1,1.3207268E2,8.613282E1,1.4274928E2,6.1031265E1,3.8837183E0,1.224139E2,1.16802284E2],"tree_param":{"num_deleted":"0","num_feature":"28","num_nodes":"15","size_leaf_vector":"1"}},{"base_weights":[-7.1846033E-3,-3.4121248E-1,4.0150726E-1,-1.3795143E-2,-5.2520055E-1,7.4289775E-1,3.0529845E-1,-1.4784806E-3,7.1943062E-3,-8.12176E-3,-3.5259803E-3,8.148814E-3,-3.8091866E-3,8.688397E-3,2.4625706E-3],"categories":[],"categories_nodes":[],"categories_segments":[],"categories_sizes":[],"default_left":[0,0,0,0,0,0,0,0,0,0,0,0,0,0,0],"id":16,"left_children":[1,3,5,7,9,11,13,-1,-1,-1,-1,-1,-1,-1,-1],"loss_changes":[9.180752E1,2.2284718E1,9.707447E0,1.3292962E1,1.144735E1,5.6333923E0,7.6935463E0,0E0,0E0,0E0,0E0,0E0,0E0,0E0,0E0],"parents":[2147483647,0,0,1,1,2,2,3,3,4,4,5,5,6,6],"right_children":[2,4,6,8,10,12,14,-1,-1,-1,-1,-1,-1,-1,-1],"split_conditions":[4.390244E-1,8.36E0,7.65E0,3.4146342E-1,2.857143E-1,1.1E1,3.143505E-1,-1.4784806E-3,7.1943062E-3,-8.12176E-3,-3.5259803E-3,8.148814E-3,-3.8091866E-3,8.688397E-3,2.4625706E-3],"split_indices":[19,12,12,18,19,3,24,0,0,0,0,0,0,0,0],"split_type":[0,0,0,0,0,0,0,0,0,0,0,0,0,0,0],"sum_hessian":[6.7050775E2,3.6904706E2,3.014607E2,1.3315863E2,2.3588843E2,6.48001E1,2.3666058E2,1.13251625E2,1.9907013E1,8.720037E1,1.4868805E2,6.115768E1,3.6424248E0,2.114253E1,2.1551805E2],"tree_param":{"num_deleted":"0","num_feature":"28","num_nodes":"15","size_leaf_vector":"1"}},{"base_weights":[-9.201468E-3,-5.7635874E-1,1.5448874E-1,-9.692155E-1,-4.0791473E-1,-4.8624296E-2,3.7495202E-1,-1.0497831E-2,5.128368E-3,-5.180613E-3,1.961144E-3,-1.7053112E-3,1.6251389E-3,2.0697883E-3,6.763989E-3],"categories":[],"categories_nodes":[],"categories_segments":[],"categories_sizes":[],"default_left":[0,0,0,0,0,0,0,0,0,0,0,0,0,0,0],"id":17,"left_children":[1,3,5,7,9,11,13,-1,-1,-1,-1,-1,-1,-1,-1],"loss_changes":[6.2608444E1,9.599636E0,2.3454815E1,5.863823E0,7.2498055E0,7.0621395E0,1.2573811E1,0E0,0E0,0E0,0E0,0E0,0E0,0E0,0E0],"parents":[2147483647,0,0,1,1,2,2,3,3,4,4,5,5,6,6],"right_children":[2,4,6,8,10,12,14,-1,-1,-1,-1,-1,-1,-1,-1],"split_conditions":[2.972973E-1,1.9354838E-1,3.4042552E-1,1.43E0,9.333333E0,4.4444445E-1,1.0418495E-1,-1.0497831E-2,5.128368E-3,-5.180613E-3,1.961144E-3,-1.7053112E-3,1.6251389E-3,2.0697883E-3,6.763989E-3],"split_indices":[19,19,18,10,7,19,26,0,0,0,0,0,0,0,0],"split_type":[0,0,0,0,0,0,0,0,0,0,0,0,0,0,0],"sum_hessian":[6.724241E2,1.500403E2,5.223838E2,4.3599823E1,1.06440475E2,2.7229636E2,2.5008745E2,4.162848E1,1.9713442E0,9.014464E1,1.6295835E1,1.7274771E2,9.954863E1,1.6168144E2,8.8406006E1],"tree_param":{"num_deleted":"0","num_feature":"28","num_nodes":"15","size_leaf_vector":"1"}},{"base_weights":[9.492616E-3,-6.345013E-1,1.6853802E-1,-3.3505535E-1,-9.187718E-1,-5.4564144E-2,4.242058E-1,-8.3178E-3,-1.3327152E-3,-1.0316844E-2,-2.0771786E-3,3.9057937E-3,-1.2520895E-3,9.449448E-3,2.672284E-3],"categories":[],"categories_nodes":[],"categories_segments":[],"categories_sizes":[],"default_left":[0,0,0,0,0,0,0,0,0,0,0,0,0,0,0],"id":18,"left_children":[1,3,5,7,9,11,13,-1,-1,-1,-1,-1,-1,-1,-1],"loss_changes":[6.987566E1,1.1194004E1,3.122715E1,6.6424356E0,5.3047867E0,9.263478E0,2.0595219E1,0E0,0E0,0E0,0E0,0E0,0E0,0E0,0E0],"parents":[2147483647,0,0,1,1,2,2,3,3,4,4,5,5,6,6],"right_children":[2,4,6,8,10,12,14,-1,-1,-1,-1,-1,-1,-1,-1],"split_conditions":[2.857143E-1,8.66E0,3.3962265E-1,1.3333334E0,9.333333E0,3.2207778E-1,7.65E0,-8.3178E-3,-1.3327152E-3,-1.0316844E-2,-2.0771786E-3,3.9057937E-3,-1.2520895E-3,9.449448E-3,2.672284E-3],"split_indices":[19,12,18,5,7,24,12,0,0,0,0,0,0,0,0],"split_type":[0,0,0,0,0,0,0,0,0,0,0,0,0,0,0],"sum_hessian":[6.801737E2,1.3411926E2,5.4605444E2,6.637723E1,6.774204E1,2.920184E2,2.5403603E2,1.8273012E1,4.8104214E1,5.8069855E1,9.672185E0,3.937594E1,2.5264246E2,5.767892E1,1.963571E2],"tree_param":{"num_deleted":"0","num_feature":"28","num_nodes":"15","size_leaf_vector":"1"}},{"base_weights":[-9.850734E-3,-2.5576776E-1,3.2654282E-1,-8.216393E-1,-1.679224E-1,7.23294E-1,2.0857075E-1,-1.4977946E-2,-6.0702274E-3,-1.0866703E-3,-1.2821112E-2,8.1441E-3,-1.790325E-3,4.9706367E-3,8.5454015E-4],"categories":[],"categories_nodes":[],"categories_segments":[],"categories_sizes":[],"default_left":[0,0,0,0,0,0,0,0,0,0,0,0,0,0,0],"id":19,"left_children":[1,3,5,7,9,11,13,-1,-1,-1,-1,-1,-1,-1,-1],"loss_changes":[5.6000385E1,1.9300383E1,1.3230673E1,6.6789093E0,2.2291595E1,5.4998016E0,7.834606E0,0E0,0E0,0E0,0E0,0E0,0E0,0E0,0E0],"parents":[2147483647,0,0,1,1,2,2,3,3,4,4,5,5,6,6],"right_children":[2,4,6,8,10,12,14,-1,-1,-1,-1,-1,-1,-1,-1],"split_conditions":[3.2786885E-1,2.0512821E-1,7.65E0,1.09E0,1.521739E-1,2.8846154E-1,6E-1,-1.4977946E-2,-6.0702274E-3,-1.0866703E-3,-1.2821112E-2,8.1441E-3,-1.790325E-3,4.9706367E-3,8.5454015E-4],"split_indices":[18,18,12,10,21,20,17,0,0,0,0,0,0,0,0],"split_type":[0,0,0,0,0,0,0,0,0,0,0,0,0,0,0],"sum_hessian":[6.7493756E2,3.9004147E2,2.8489612E2,5.129061E1,3.3875085E2,6.412078E1,2.2077531E2,1.09170885E1,4.0373524E1,3.2268707E2,1.606378E1,5.832829E1,5.7924957E0,6.512769E1,1.5564763E2],"tree_param":{"num_deleted":"0","num_feature":"28","num_nodes":"15","size_leaf_vector":"1"}},{"base_weights":[1.1270182E-2,-3.5225552E-1,2.7640182E-1,-4.9730682E-1,1.8855283E-1,6.182522E-1,1.8391027E-1,-4.2747664E-3,-1.0469515E-2,-2.1255699E-3,4.6653724E-3,6.7964825E-3,-8.161884E-3,5.6615897E-4,3.9484603E-3],"categories":[],"categories_nodes":[],"categories_segments":[],"categories_sizes":[],"default_left":[0,0,0,0,0,0,0,0,0,0,0,0,0,0,0],"id":20,"left_children":[1,3,5,7,9,11,13,-1,-1,-1,-1,-1,-1,-1,-1],"loss_changes":[6.573934E1,2.2660149E1,1.2356159E1,8.26923E0,6.9637184E0,7.9137707E0,8.350514E0,0E0,0E0,0E0,0E0,0E0,0E0,0E0,0E0],"parents":[2147483647,0,0,1,1,2,2,3,3,4,4,5,5,6,6],"right_children":[2,4,6,8,10,12,14,-1,-1,-1,-1,-1,-1,-1,-1],"split_conditions":[3.846154E-1,4.52E0,7.65E0,4.29E0,2.682927E-1,1.5E0,5.405405E-1,-4.2747664E-3,-1.0469515E-2,-2.1255699E-3,4.6653724E-3,6.7964825E-3,-8.161884E-3,5.6615897E-4,3.9484603E-3],"split_indices":[19,16,12,9,19,22,19,0,0,0,0,0,0,0,0],"split_type":[0,0,0,0,0,0,0,0,0,0,0,0,0,0,0],"sum_hessian":[6.800594E2,2.8667148E2,3.933879E2,2.2610722E2,6.056424E1,8.256005E1,3.1082785E2,2.0219669E2,2.3910551E1,2.4888065E1,3.5676174E1,7.9675995E1,2.8840513E0,1.946375E2,1.1619037E2],"tree_param":{"num_deleted":"0","num_feature":"28","num_nodes":"15","size_leaf_vector":"1"}},{"base_weights":[1.9544385E-2,-2.622113E-1,3.8530067E-1,-6.3415515E-1,-9.0100735E-2,2.6540884E-1,7.064205E-1,-1.0483275E-2,-4.478823E-3,-3.0551765E-3,1.2473797E-3,4.6204594E-3,2.7986284E-4,-6.028349E-3,7.7708834E-3],"categories":[],"categories_nodes":[],"categories_segments":[],"categories_sizes":[],"default_left":[0,0,0,0,0,0,0,0,0,0,0,0,0,0,0],"id":21,"left_children":[1,3,5,7,9,11,13,-1,-1,-1,-1,-1,-1,-1,-1],"loss_changes":[6.984687E1,2.4453697E1,1.1166073E1,8.862476E0,1.2206419E1,1.0086753E1,7.8303413E0,0E0,0E0,0E0,0E0,0E0,0E0,0E0,0E0],"parents":[2147483647,0,0,1,1,2,2,3,3,4,4,5,5,6,6],"right_children":[2,4,6,8,10,12,14,-1,-1,-1,-1,-1,-1,-1,-1],"split_conditions":[4.4444445E-1,2.7272728E-1,3.962264E-1,3.32E0,3.9E0,7E-1,3.05E0,-1.0483275E-2,-4.478823E-3,-3.0551765E-3,1.2473797E-3,4.6204594E-3,2.7986284E-4,-6.028349E-3,7.7708834E-3],"split_indices":[19,19,18,9,16,17,16,0,0,0,0,0,0,0,0],"split_type":[0,0,0,0,0,0,0,0,0,0,0,0,0,0,0],"sum_hessian":[6.757898E2,3.8188934E2,2.9390048E2,1.1996069E2,2.6192865E2,2.1533173E2,7.8568756E1,3.5779053E1,8.418163E1,1.3057758E2,1.3135107E2,1.17264946E2,9.806678E1,3.6379707E0,7.4930786E1],"tree_param":{"num_deleted":"0","num_feature":"28","num_nodes":"15","size_leaf_vector":"1"}},{"base_weights":[3.3115562E-2,-2.7623445E-1,4.0579775E-1,5.0063427E-3,-4.845853E-1,7.666596E-1,3.0572012E-1,-1.0582957E-3,7.0044985E-3,-7.814765E-3,-3.196028E-3,1.9552212E-3,9.496135E-3,1.9812502E-3,4.9503976E-3],"categories":[],"categories_nodes":[],"categories_segments":[],"categories_sizes":[],"default_left":[0,0,0,0,0,0,0,0,0,0,0,0,0,0,0],"id":22,"left_children":[1,3,5,7,9,11,13,-1,-1,-1,-1,-1,-1,-1,-1],"loss_changes":[7.7636086E1,2.1567818E1,1.0794888E1,1.2222647E1,1.0106052E1,6.673607E0,4.80608E0,0E0,0E0,0E0,0E0,0E0,0E0,0E0,0E0],"parents":[2147483647,0,0,1,1,2,2,3,3,4,4,5,5,6,6],"right_children":[2,4,6,8,10,12,14,-1,-1,-1,-1,-1,-1,-1,-1],"split_conditions":[4.390244E-1,8.53E0,7.65E0,3.4146342E-1,2.857143E-1,3.265306E-1,3.8297874E-1,-1.0582957E-3,7.0044985E-3,-7.814765E-3,-3.196028E-3,1.9552212E-3,9.496135E-3,1.9812502E-3,4.9503976E-3],"split_indices":[19,12,12,18,19,18,18,0,0,0,0,0,0,0,0],"split_type":[0,0,0,0,0,0,0,0,0,0,0,0,0,0,0],"sum_hessian":[6.7143036E2,3.6703043E2,3.043999E2,1.5660896E2,2.1042146E2,6.464414E1,2.3975577E2,1.3581184E2,2.0797112E1,7.3828316E1,1.3659315E2,1.6185534E1,4.8458607E1,1.541787E2,8.557708E1],"tree_param":{"num_deleted":"0","num_feature":"28","num_nodes":"15","size_leaf_vector":"1"}},{"base_weights":[-6.5241577E-3,-2.7831742E-1,3.73831E-1,-6.0502166E-1,-1.2891185E-1,4.7668904E-1,-1.1483398E-1,2.9643415E-3,-7.1031516E-3,-5.362092E-4,-9.550673E-3,3.3487752E-3,7.2613955E-3,5.278359E-4,-9.4713E-3],"categories":[],"categories_nodes":[],"categories_segments":[],"categories_sizes":[],"default_left":[0,0,0,0,0,0,0,0,0,0,0,0,0,0,0],"id":23,"left_children":[1,3,5,7,9,11,13,-1,-1,-1,-1,-1,-1,-1,-1],"loss_changes":[7.100834E1,1.9475792E1,1.4443859E1,1.2116913E1,1.7126465E1,8.129742E0,7.10704E0,0E0,0E0,0E0,0E0,0E0,0E0,0E0,0E0],"parents":[2147483647,0,0,1,1,2,2,3,3,4,4,5,5,6,6],"right_children":[2,4,6,8,10,12,14,-1,-1,-1,-1,-1,-1,-1,-1],"split_conditions":[3.2786885E-1,2.5E-1,2.94E-1,3.6666667E0,1.4634146E-1,1.0418495E-1,3.6666667E0,2.9643415E-3,-7.1031516E-3,-5.362092E-4,-9.550673E-3,3.3487752E-3,7.2613955E-3,5.278359E-4,-9.4713E-3],"split_indices":[18,18,15,6,21,26,8,0,0,0,0,0,0,0,0],"split_type":[0,0,0,0,0,0,0,0,0,0,0,0,0,0,0],"sum_hessian":[6.848744E2,3.995985E2,2.8527588E2,1.2443901E2,2.7515952E2,2.3569041E2,4.9585453E1,1.28249235E1,1.1161409E2,2.531535E2,2.200601E1,1.5175871E2,8.393171E1,4.205292E1,7.5325313E0],"tree_param":{"num_deleted":"0","num_feature":"28","num_nodes":"15","size_leaf_vector":"1"}},{"base_weights":[-9.032131E-3,-2.4002859E-1,3.0195597E-1,-3.7750743E-2,-5.0499076E-1,6.2497795E-1,2.1651581E-1,-4.528333E-3,1.2749566E-3,1.238782E-3,-5.800512E-3,-3.3915084E-4,8.162587E-3,-1.3429924E-3,2.8771986E-3],"categories":[],"categories_nodes":[],"categories_segments":[],"categories_sizes":[],"default_left":[0,0,0,0,0,0,0,0,0,0,0,0,0,0,0],"id":24,"left_children":[1,3,5,7,9,11,13,-1,-1,-1,-1,-1,-1,-1,-1],"loss_changes":[4.8762974E1,2.0854948E1,7.8496494E0,1.5280869E1,8.026943E0,7.588251E0,5.792203E0,0E0,0E0,0E0,0E0,0E0,0E0,0E0,0E0],"parents":[2147483647,0,0,1,1,2,2,3,3,4,4,5,5,6,6],"right_children":[2,4,6,8,10,12,14,-1,-1,-1,-1,-1,-1,-1,-1],"split_conditions":[4.4444445E-1,9.09E0,7.65E0,2.6190478E-1,3.02E0,4.883721E-1,8.18E0,-4.528333E-3,1.2749566E-3,1.238782E-3,-5.800512E-3,-3.3915084E-4,8.162587E-3,-1.3429924E-3,2.8771986E-3],"split_indices":[19,12,12,19,16,19,12,0,0,0,0,0,0,0,0],"split_type":[0,0,0,0,0,0,0,0,0,0,0,0,0,0,0],"sum_hessian":[6.767899E2,3.884697E2,2.8832025E2,2.2094102E2,1.6752867E2,5.8988552E1,2.293317E2,6.241653E1,1.5852449E2,1.7794353E1,1.4973433E2,1.3456942E1,4.553161E1,3.8543877E1,1.9078781E2],"tree_param":{"num_deleted":"0","num_feature":"28","num_nodes":"15","size_leaf_vector":"1"}},{"base_weights":[4.942266E-3,-5.0981677E-1,1.8418592E-1,-6.446822E-1,-8.780008E-2,-4.4571007E-5,3.6911687E-1,-9.1885235E-3,-4.831677E-3,-1.3504524E-2,-1.2313394E-4,-2.3475736E-3,1.7627946E-3,1.957612E-3,6.8300394E-3],"categories":[],"categories_nodes":[],"categories_segments":[],"categories_sizes":[],"default_left":[0,0,0,0,0,0,0,0,0,0,0,0,0,0,0],"id":25,"left_children":[1,3,5,7,9,11,13,-1,-1,-1,-1,-1,-1,-1,-1],"loss_changes":[6.335769E1,1.0037563E1,1.7351963E1,5.500721E0,4.1875625E0,1.0641662E1,1.3696667E1,0E0,0E0,0E0,0E0,0E0,0E0,0E0,0E0],"parents":[2147483647,0,0,1,1,2,2,3,3,4,4,5,5,6,6],"right_children":[2,4,6,8,10,12,14,-1,-1,-1,-1,-1,-1,-1,-1],"split_conditions":[3.0769232E-1,4.48E0,3.3962265E-1,6E0,2.3333333E0,1.16E0,1.0418495E-1,-9.1885235E-3,-4.831677E-3,-1.3504524E-2,-1.2313394E-4,-2.3475736E-3,1.7627946E-3,1.957612E-3,6.8300394E-3],"split_indices":[19,16,18,3,6,10,26,0,0,0,0,0,0,0,0],"split_type":[0,0,0,0,0,0,0,0,0,0,0,0,0,0,0],"sum_hessian":[6.846577E2,1.7635376E2,5.08304E2,1.3324466E2,4.310911E1,2.5513504E2,2.5316895E2,4.7657413E1,8.558724E1,1.4790676E0,4.1630043E1,1.09304085E2,1.4583096E2,1.6414018E2,8.9028755E1],"tree_param":{"num_deleted":"0","num_feature":"28","num_nodes":"15","size_leaf_vector":"1"}},{"base_weights":[2.2095947E-3,-2.592014E-1,3.3049417E-1,-8.131337E-1,-1.6174765E-1,1.9220404E-1,6.0614914E-1,-8.968738E-3,4.279592E-3,8.3486486E-4,-3.4756546E-3,7.762886E-3,1.1694593E-3,8.635602E-3,2.805842E-3],"categories":[],"categories_nodes":[],"categories_segments":[],"categories_sizes":[],"default_left":[0,0,0,0,0,0,0,0,0,0,0,0,0,0,0],"id":26,"left_children":[1,3,5,7,9,11,13,-1,-1,-1,-1,-1,-1,-1,-1],"loss_changes":[5.7875336E1,2.0136084E1,1.1279903E1,6.195759E0,1.4634923E1,8.724692E0,8.08876E0,0E0,0E0,0E0,0E0,0E0,0E0,0E0,0E0],"parents":[2147483647,0,0,1,1,2,2,3,3,4,4,5,5,6,6],"right_children":[2,4,6,8,10,12,14,-1,-1,-1,-1,-1,-1,-1,-1],"split_conditions":[4.390244E-1,2.0512821E-1,3.859649E-1,4.66E0,8.53E0,3.2359195E-1,8.96E0,-8.968738E-3,4.279592E-3,8.3486486E-4,-3.4756546E-3,7.762886E-3,1.1694593E-3,8.635602E-3,2.805842E-3],"split_indices":[19,18,18,11,12,24,12,0,0,0,0,0,0,0,0],"split_type":[0,0,0,0,0,0,0,0,0,0,0,0,0,0,0],"sum_hessian":[6.724043E2,3.744458E2,2.979585E2,5.492207E1,3.1952374E2,1.9954723E2,9.8411255E1,5.1710377E1,3.2116926E0,1.3797765E2,1.815461E2,2.1713316E1,1.7783391E2,5.4035255E1,4.4376E1],"tree_param":{"num_deleted":"0","num_feature":"28","num_nodes":"15","size_leaf_vector":"1"}},{"base_weights":[2.5927514E-2,-2.4889465E-1,3.4929016E-1,2.0320766E-2,-4.3967327E-1,7.9939455E-1,2.2732197E-1,-4.644893E-3,1.7022952E-3,-3.2660412E-3,-8.833429E-3,1.1008513E-2,5.227066E-3,1.1299095E-3,4.6510915E-3],"categories":[],"categories_nodes":[],"categories_segments":[],"categories_sizes":[],"default_left":[0,0,0,0,0,0,0,0,0,0,0,0,0,0,0],"id":27,"left_children":[1,3,5,7,9,11,13,-1,-1,-1,-1,-1,-1,-1,-1],"loss_changes":[6.1130802E1,1.9110409E1,1.7166252E1,1.1358739E1,1.0632858E1,5.0109634E0,6.744766E0,0E0,0E0,0E0,0E0,0E0,0E0,0E0,0E0],"parents":[2147483647,0,0,1,1,2,2,3,3,4,4,5,5,6,6],"right_children":[2,4,6,8,10,12,14,-1,-1,-1,-1,-1,-1,-1,-1],"split_conditions":[4.347826E-1,8.53E0,7.65E0,2.4324325E-1,3.1914893E-1,2.0454545E-1,2.52229E-1,-4.644893E-3,1.7022952E-3,-3.2660412E-3,-8.833429E-3,1.1008513E-2,5.227066E-3,1.1299095E-3,4.6510915E-3],"split_indices":[19,12,12,19,20,20,25,0,0,0,0,0,0,0,0],"split_type":[0,0,0,0,0,0,0,0,0,0,0,0,0,0,0],"sum_hessian":[6.859109E2,3.7090952E2,3.1500137E2,1.5420215E2,2.1670737E2,6.597542E1,2.4902597E2,3.5924053E1,1.1827809E2,1.740794E2,4.2627964E1,3.0148918E1,3.5826496E1,1.6916469E2,7.986129E1],"tree_param":{"num_deleted":"0","num_feature":"28","num_nodes":"15","size_leaf_vector":"1"}},{"base_weights":[4.5120418E-2,-3.1541356E-1,3.0946466E-1,-6.5556633E-1,-1.665151E-1,7.910921E-2,4.6843824E-1,-7.410542E-3,5.804644E-3,1.1805468E-3,-3.699203E-3,2.2053309E-3,-3.6550148E-3,1.357739E-3,5.88954E-3],"categories":[],"categories_nodes":[],"categories_segments":[],"categories_sizes":[],"default_left":[0,0,0,0,0,0,0,0,0,0,0,0,0,0,0],"id":28,"left_children":[1,3,5,7,9,11,13,-1,-1,-1,-1,-1,-1,-1,-1],"loss_changes":[6.482676E1,1.4467918E1,1.4331631E1,9.653431E0,1.1708414E1,1.023032E1,9.219231E0,0E0,0E0,0E0,0E0,0E0,0E0,0E0,0E0],"parents":[2147483647,0,0,1,1,2,2,3,3,4,4,5,5,6,6],"right_children":[2,4,6,8,10,12,14,-1,-1,-1,-1,-1,-1,-1,-1],"split_conditions":[3.846154E-1,2.4242425E-1,3.3962265E-1,3.6307997E-1,8.53E0,9.375E-2,7.8938626E-2,-7.410542E-3,5.804644E-3,1.1805468E-3,-3.699203E-3,2.2053309E-3,-3.6550148E-3,1.357739E-3,5.88954E-3],"split_indices":[19,19,18,23,12,21,26,0,0,0,0,0,0,0,0],"split_type":[0,0,0,0,0,0,0,0,0,0,0,0,0,0,0],"sum_hessian":[6.781783E2,2.868102E2,3.9136807E2,8.628735E1,2.0052287E2,1.6041768E2,2.309504E2,8.108005E1,5.2073E0,8.3759926E1,1.1676295E2,1.22087494E2,3.833019E1,6.1982986E1,1.689674E2],"tree_param":{"num_deleted":"0","num_feature":"28","num_nodes":"15","size_leaf_vector":"1"}},{"base_weights":[-2.3670895E-3,-5.30772E-1,1.5084058E-1,-6.8851954E-1,-3.481857E-2,2.9839128E-2,5.112823E-1,-4.6910495E-3,-8.86288E-3,-3.8329547E-3,3.64846E-3,3.6063506E-3,-4.6289255E-4,7.462952E-3,2.3378942E-3],"categories":[],"categories_nodes":[],"categories_segments":[],"categories_sizes":[],"default_left":[0,0,0,0,0,0,0,0,0,0,0,0,0,0,0],"id":29,"left_children":[1,3,5,7,9,11,13,-1,-1,-1,-1,-1,-1,-1,-1],"loss_changes":[5.516479E1,1.1958824E1,2.3024582E1,4.6243477E0,5.4341736E0,1.0003238E1,8.479988E0,0E0,0E0,0E0,0E0,0E0,0E0,0E0,0E0],"parents":[2147483647,0,0,1,1,2,2,3,3,4,4,5,5,6,6],"right_children":[2,4,6,8,10,12,14,-1,-1,-1,-1,-1,-1,-1,-1],"split_conditions":[2.972973E-1,4.48E0,3.7777779E-1,2.3990683E-1,2.4242425E-1,7.48E0,8.95E0,-4.6910495E-3,-8.86288E-3,-3.8329547E-3,3.64846E-3,3.6063506E-3,-4.6289255E-4,7.462952E-3,2.3378942E-3],"split_indices":[19,16,18,25,19,12,12,0,0,0,0,0,0,0,0],"split_type":[0,0,0,0,0,0,0,0,0,0,0,0,0,0,0],"sum_hessian":[6.794307E2,1.5216333E2,5.272674E2,1.1514952E2,3.70138E1,3.9555957E2,1.3170782E2,5.6185932E1,5.8963585E1,1.979502E1,1.7218784E1,7.330307E1,3.222565E2,7.039761E1,6.131022E1],"tree_param":{"num_deleted":"0","num_feature":"28","num_nodes":"15","size_leaf_vector":"1"}},{"base_weights":[-6.4604054E-3,-2.2637351E-1,3.4703535E-1,-5.6389105E-1,-1.0990615E-1,7.9782724E-1,2.3696849E-1,3.7085451E-3,-6.6123623E-3,-2.1849675E-3,1.3313784E-3,-2.0970139E-3,8.559301E-3,6.0650622E-3,1.038168E-3],"categories":[],"categories_nodes":[],"categories_segments":[],"categories_sizes":[],"default_left":[0,0,0,0,0,0,0,0,0,0,0,0,0,0,0],"id":30,"left_children":[1,3,5,7,9,11,13,-1,-1,-1,-1,-1,-1,-1,-1],"loss_changes":[5.3528706E1,1.6624079E1,1.2914295E1,1.0132046E1,8.390724E0,3.1887016E0,1.0451298E1,0E0,0E0,0E0,0E0,0E0,0E0,0E0,0E0],"parents":[2147483647,0,0,1,1,2,2,3,3,4,4,5,5,6,6],"right_children":[2,4,6,8,10,12,14,-1,-1,-1,-1,-1,-1,-1,-1],"split_conditions":[3.3962265E-1,2.3809524E-1,7.56E0,3.5E0,1.25E0,5.02043E5,6E-1,3.7085451E-3,-6.6123623E-3,-2.1849675E-3,1.3313784E-3,-2.0970139E-3,8.559301E-3,6.0650622E-3,1.038168E-3],"split_indices":[18,18,12,6,10,1,17,0,0,0,0,0,0,0,0],"split_type":[0,0,0,0,0,0,0,0,0,0,0,0,0,0,0],"sum_hessian":[6.865647E2,4.234759E2,2.630888E2,1.07654884E2,3.15821E2,5.0404125E1,2.126847E2,9.888833E0,9.776605E1,2.1836005E2,9.746096E1,2.605988E0,4.7798138E1,5.539399E1,1.572907E2],"tree_param":{"num_deleted":"0","num_feature":"28","num_nodes":"15","size_leaf_vector":"1"}},{"base_weights":[-8.538017E-3,-2.562483E-1,3.3960453E-1,-2.1145214E-1,-1.2095718E0,8.460707E-1,2.0560054E-1,-5.5910298E-3,-6.8450504E-4,-2.8968488E-3,-1.590566E-2,9.518251E-3,7.2070013E-4,-2.8228322E-3,2.6696664E-3],"categories":[],"categories_nodes":[],"categories_segments":[],"categories_sizes":[],"default_left":[0,0,0,0,0,0,0,0,0,0,0,0,0,0,0],"id":31,"left_children":[1,3,5,7,9,11,13,-1,-1,-1,-1,-1,-1,-1,-1],"loss_changes":[5.9491577E1,1.6956266E1,1.9290562E1,1.9159836E1,5.804592E0,4.8168488E0,6.9049406E0,0E0,0E0,0E0,0E0,0E0,0E0,0E0,0E0],"parents":[2147483647,0,0,1,1,2,2,3,3,4,4,5,5,6,6],"right_children":[2,4,6,8,10,12,14,-1,-1,-1,-1,-1,-1,-1,-1],"split_conditions":[3.2786885E-1,1.521739E-1,7.56E0,2.3809524E-1,2.948664E-1,1.2E0,1.87E0,-5.5910298E-3,-6.8450504E-4,-2.8968488E-3,-1.590566E-2,9.518251E-3,7.2070013E-4,-2.8228322E-3,2.6696664E-3],"split_indices":[18,21,12,18,23,17,13,0,0,0,0,0,0,0,0],"split_type":[0,0,0,0,0,0,0,0,0,0,0,0,0,0,0],"sum_hessian":[6.8784045E2,4.0204294E2,2.857975E2,3.8516602E2,1.6876928E1,5.8684914E1,2.2711258E2,1.1140934E2,2.7375668E2,5.4583707E0,1.1418558E1,5.1428333E1,7.256583E0,2.4972408E1,2.0214017E2],"tree_param":{"num_deleted":"0","num_feature":"28","num_nodes":"15","size_leaf_vector":"1"}},{"base_weights":[-2.972523E-6,-4.4506994E-1,1.5538266E-1,-5.703948E-1,-5.235314E-2,-4.2005107E-2,3.016975E-1,-6.558151E-3,-1.1167999E-3,-8.665352E-3,8.0530654E-4,2.73303E-3,-2.6735584E-3,6.191586E-3,2.1914132E-3],"categories":[],"categories_nodes":[],"categories_segments":[],"categories_sizes":[],"default_left":[0,0,0,0,0,0,0,0,0,0,0,0,0,0,0],"id":32,"left_children":[1,3,5,7,9,11,13,-1,-1,-1,-1,-1,-1,-1,-1],"loss_changes":[4.700711E1,8.627312E0,1.4563329E1,5.1476974E0,4.7928057E0,1.5375044E1,7.450699E0,0E0,0E0,0E0,0E0,0E0,0E0,0E0,0E0],"parents":[2147483647,0,0,1,1,2,2,3,3,4,4,5,5,6,6],"right_children":[2,4,6,8,10,12,14,-1,-1,-1,-1,-1,-1,-1,-1],"split_conditions":[3.0769232E-1,4.43E0,4.473684E-1,2.797272E-1,1.5151516E-1,8.52E0,7.65E0,-6.558151E-3,-1.1167999E-3,-8.665352E-3,8.0530654E-4,2.73303E-3,-2.6735584E-3,6.191586E-3,2.1914132E-3],"split_indices":[19,16,19,25,19,12,12,0,0,0,0,0,0,0,0],"split_type":[0,0,0,0,0,0,0,0,0,0,0,0,0,0,0],"sum_hessian":[6.7771576E2,1.7489742E2,5.0281833E2,1.3224316E2,4.2654247E1,2.1435417E2,2.8846414E2,1.1112093E2,2.1122236E1,5.2102046E0,3.7444042E1,8.925577E1,1.25098404E2,5.819222E1,2.3027193E2],"tree_param":{"num_deleted":"0","num_feature":"28","num_nodes":"15","size_leaf_vector":"1"}},{"base_weights":[1.0864449E-2,-2.169811E-1,3.8726676E-1,-5.491535E-1,-7.8488E-2,6.080609E-1,1.5910432E-1,-9.897096E-3,-4.413724E-3,-3.4818175E-4,-1.3619208E-2,3.5536273E-3,8.32316E-3,3.0776006E-3,-3.6374526E-3],"categories":[],"categories_nodes":[],"categories_segments":[],"categories_sizes":[],"default_left":[0,0,0,0,0,0,0,0,0,0,0,0,0,0,0],"id":33,"left_children":[1,3,5,7,9,11,13,-1,-1,-1,-1,-1,-1,-1,-1],"loss_changes":[5.869335E1,1.9570444E1,1.290303E1,5.512203E0,1.6882347E1,7.1158485E0,1.008105E1,0E0,0E0,0E0,0E0,0E0,0E0,0E0,0E0],"parents":[2147483647,0,0,1,1,2,2,3,3,4,4,5,5,6,6],"right_children":[2,4,6,8,10,12,14,-1,-1,-1,-1,-1,-1,-1,-1],"split_conditions":[3.4042552E-1,2.5E-1,8.89E0,6.8373896E-2,1.7073171E-1,9.370864E-2,6E0,-9.897096E-3,-4.413724E-3,-3.4818175E-4,-1.3619208E-2,3.5536273E-3,8.32316E-3,3.0776006E-3,-3.6374526E-3],"split_indices":[18,18,12,26,21,26,4,0,0,0,0,0,0,0,0],"split_type":[0,0,0,0,0,0,0,0,0,0,0,0,0,0,0],"sum_hessian":[6.823983E2,4.2534818E2,2.5705014E2,1.2428597E2,3.010622E2,1.2978824E2,1.27261894E2,2.2821272E1,1.0146471E2,2.921487E2,8.913464E0,6.2239426E1,6.754881E1,9.940936E1,2.785253E1],"tree_param":{"num_deleted":"0","num_feature":"28","num_nodes":"15","size_leaf_vector":"1"}},{"base_weights":[-7.2034835E-3,-2.2841927E-1,3.4540352E-1,-5.2057827E-1,-4.1427888E-2,1.9605453E-1,6.107005E-1,-1.283156E-2,-4.244506E-3,-2.2669574E-3,1.0002253E-3,2.6233376E-3,-6.443914E-3,7.6214722E-3,1.1795964E-3],"categories":[],"categories_nodes":[],"categories_segments":[],"categories_sizes":[],"default_left":[0,0,0,0,0,0,0,0,0,0,0,0,0,0,0],"id":34,"left_children":[1,3,5,7,9,11,13,-1,-1,-1,-1,-1,-1,-1,-1],"loss_changes":[5.2948822E1,2.2765207E1,1.0249241E1,1.1381332E1,6.7160482E0,9.578112E0,6.908848E0,0E0,0E0,0E0,0E0,0E0,0E0,0E0,0E0],"parents":[2147483647,0,0,1,1,2,2,3,3,4,4,5,5,6,6],"right_children":[2,4,6,8,10,12,14,-1,-1,-1,-1,-1,-1,-1,-1],"split_conditions":[3.3962265E-1,3.0769232E-1,1.0418495E-1,1.5384616E-1,1.16E0,8.333333E0,2.89E-1,-1.283156E-2,-4.244506E-3,-2.2669574E-3,1.0002253E-3,2.6233376E-3,-6.443914E-3,7.6214722E-3,1.1795964E-3],"split_indices":[18,19,26,18,10,6,15,0,0,0,0,0,0,0,0],"split_type":[0,0,0,0,0,0,0,0,0,0,0,0,0,0,0],"sum_hessian":[6.768001E2,4.161017E2,2.606984E2,1.6169005E2,2.5441167E2,1.6791154E2,9.278685E1,1.6718033E1,1.4497202E2,1.0988486E2,1.4452681E2,1.5627524E2,1.1636308E1,7.05547E1,2.223215E1],"tree_param":{"num_deleted":"0","num_feature":"28","num_nodes":"15","size_leaf_vector":"1"}},{"base_weights":[1.4892922E-2,-2.3354656E-1,3.082469E-1,5.9910104E-2,-4.223374E-1,6.4957833E-1,2.2298998E-1,-5.128292E-3,2.0883007E-3,-7.314877E-3,-2.4631128E-3,7.013147E-3,-6.5859654E-3,3.200358E-3,-1.5810532E-3],"categories":[],"categories_nodes":[],"categories_segments":[],"categories_sizes":[],"default_left":[0,0,0,0,0,0,0,0,0,0,0,0,0,0,0],"id":35,"left_children":[1,3,5,7,9,11,13,-1,-1,-1,-1,-1,-1,-1,-1],"loss_changes":[5.015633E1,2.0671309E1,9.037968E0,1.2624988E1,1.2167065E1,4.694786E0,9.444779E0,0E0,0E0,0E0,0E0,0E0,0E0,0E0,0E0],"parents":[2147483647,0,0,1,1,2,2,3,3,4,4,5,5,6,6],"right_children":[2,4,6,8,10,12,14,-1,-1,-1,-1,-1,-1,-1,-1],"split_conditions":[4.347826E-1,8.42E0,7.56E0,2.3333333E-1,2.857143E-1,5.8845663E-1,3.3333333E0,-5.128292E-3,2.0883007E-3,-7.314877E-3,-2.4631128E-3,7.013147E-3,-6.5859654E-3,3.200358E-3,-1.5810532E-3],"split_indices":[19,12,12,19,19,24,8,0,0,0,0,0,0,0,0],"split_type":[0,0,0,0,0,0,0,0,0,0,0,0,0,0,0],"sum_hessian":[6.8620984E2,3.716586E2,3.1455124E2,1.4576462E2,2.2589398E2,6.154259E1,2.5300865E2,2.9575388E1,1.16189224E2,8.0811386E1,1.450826E2,5.9647514E1,1.8950756E0,2.017845E2,5.122415E1],"tree_param":{"num_deleted":"0","num_feature":"28","num_nodes":"15","size_leaf_vector":"1"}},{"base_weights":[1.3573685E-2,-2.3747571E-1,3.3033E-1,4.497564E-2,-4.3246993E-1,6.594306E-1,2.3933223E-1,-6.592359E-4,7.4577634E-3,-7.0956177E-3,-2.738837E-3,7.448074E-3,-5.5173663E-3,1.4057523E-4,4.495948E-3],"categories":[],"categories_nodes":[],"categories_segments":[],"categories_sizes":[],"default_left":[0,0,0,0,0,0,0,0,0,0,0,0,0,0,0],"id":36,"left_children":[1,3,5,7,9,11,13,-1,-1,-1,-1,-1,-1,-1,-1],"loss_changes":[5.4071217E1,2.0912828E1,8.844917E0,1.21606045E1,9.671509E0,7.0855007E0,1.1222973E1,0E0,0E0,0E0,0E0,0E0,0E0,0E0,0E0],"parents":[2147483647,0,0,1,1,2,2,3,3,4,4,5,5,6,6],"right_children":[2,4,6,8,10,12,14,-1,-1,-1,-1,-1,-1,-1,-1],"split_conditions":[4.390244E-1,8.52E0,7.65E0,3.4146342E-1,2.857143E-1,1.1E1,2.311228E-1,-6.592359E-4,7.4577634E-3,-7.0956177E-3,-2.738837E-3,7.448074E-3,-5.5173663E-3,1.4057523E-4,4.495948E-3],"split_indices":[19,12,12,18,19,3,25,0,0,0,0,0,0,0,0],"split_type":[0,0,0,0,0,0,0,0,0,0,0,0,0,0,0],"sum_hessian":[6.779708E2,3.783527E2,2.996181E2,1.5483778E2,2.2351492E2,6.3547394E1,2.3607071E2,1.3446509E2,2.0372692E1,8.00945E1,1.4342044E2,5.972252E1,3.8248725E0,1.1448196E2,1.2158876E2],"tree_param":{"num_deleted":"0","num_feature":"28","num_nodes":"15","size_leaf_vector":"1"}},{"base_weights":[-2.2931248E-2,-2.6692894E-1,2.857321E-1,-3.8640347E-1,1.1124928E-1,1.8438932E-2,3.7286013E-1,-2.3601747E-3,-6.6059064E-3,-6.3338624E-3,2.2341162E-3,2.1098352E-3,-6.91394E-3,6.6711134E-3,2.888003E-3],"categories":[],"categories_nodes":[],"categories_segments":[],"categories_sizes":[],"default_left":[0,0,0,0,0,0,0,0,0,0,0,0,0,0,0],"id":37,"left_children":[1,3,5,7,9,11,13,-1,-1,-1,-1,-1,-1,-1,-1],"loss_changes":[5.12598E1,1.7216082E1,6.9920387E0,1.1763027E1,7.8274355E0,1.0387083E1,5.412136E0,0E0,0E0,0E0,0E0,0E0,0E0,0E0,0E0],"parents":[2147483647,0,0,1,1,2,2,3,3,4,4,5,5,6,6],"right_children":[2,4,6,8,10,12,14,-1,-1,-1,-1,-1,-1,-1,-1],"split_conditions":[4.390244E-1,4.48E0,7.5382054E-2,3.68E0,6.40528E-2,3.1678912E-1,7.65E0,-2.3601747E-3,-6.6059064E-3,-6.3338624E-3,2.2341162E-3,2.1098352E-3,-6.91394E-3,6.6711134E-3,2.888003E-3],"split_indices":[19,16,26,9,26,23,12,0,0,0,0,0,0,0,0],"split_type":[0,0,0,0,0,0,0,0,0,0,0,0,0,0,0],"sum_hessian":[6.7860956E2,3.7908157E2,2.9952795E2,2.8805664E2,9.102494E1,7.39314E1,2.2559657E2,1.872272E2,1.0082944E2,1.1307622E1,7.971732E1,5.870912E1,1.5222278E1,4.858584E1,1.7701073E2],"tree_param":{"num_deleted":"0","num_feature":"28","num_nodes":"15","size_leaf_vector":"1"}},{"base_weights":[-5.0177705E-3,-2.517745E-1,3.4597522E-1,-3.5862654E-1,7.823112E-2,5.506232E-1,1.07954346E-1,-8.9256285E-4,-5.4101855E-3,-1.2654376E-3,5.1977066E-3,3.9872713E-3,8.118022E-3,3.787801E-3,-1.3930473E-3],"categories":[],"categories_nodes":[],"categories_segments":[],"categories_sizes":[],"default_left":[0,0,0,0,0,0,0,0,0,0,0,0,0,0,0],"id":38,"left_children":[1,3,5,7,9,11,13,-1,-1,-1,-1,-1,-1,-1,-1],"loss_changes":[5.8928013E1,1.4115261E1,1.3622128E1,1.4787651E1,8.975065E0,5.6581154E0,8.831348E0,0E0,0E0,0E0,0E0,0E0,0E0,0E0,0E0],"parents":[2147483647,0,0,1,1,2,2,3,3,4,4,5,5,6,6],"right_children":[2,4,6,8,10,12,14,-1,-1,-1,-1,-1,-1,-1,-1],"split_conditions":[3.2786885E-1,4.3589744E-1,8.95E0,8.53E0,9.42E0,1.0418495E-1,2.3333333E0,-8.9256285E-4,-5.4101855E-3,-1.2654376E-3,5.1977066E-3,3.9872713E-3,8.118022E-3,3.787801E-3,-1.3930473E-3],"split_indices":[18,19,12,12,12,26,8,0,0,0,0,0,0,0,0],"split_type":[0,0,0,0,0,0,0,0,0,0,0,0,0,0,0],"sum_hessian":[6.7837866E2,3.9850354E2,2.7987515E2,3.009671E2,9.753643E1,1.4978131E2,1.3009383E2,1.2211211E2,1.7885501E2,6.712087E1,3.041556E1,9.630124E1,5.3480076E1,6.183419E1,6.825963E1],"tree_param":{"num_deleted":"0","num_feature":"28","num_nodes":"15","size_leaf_vector":"1"}},{"base_weights":[6.333459E-2,-1.3675556E-1,3.496571E-1,-2.4865603E-1,2.323063E-1,5.2135986E-1,1.9730979E-1,-1.5438157E-3,-7.949865E-3,-9.683325E-4,4.272417E-3,-2.1832066E-3,6.1454563E-3,5.049446E-3,2.1925676E-4],"categories":[],"categories_nodes":[],"categories_segments":[],"categories_sizes":[],"default_left":[0,0,0,0,0,0,0,0,0,0,0,0,0,0,0],"id":39,"left_children":[1,3,5,7,9,11,13,-1,-1,-1,-1,-1,-1,-1,-1],"loss_changes":[3.79792E1,1.6182755E1,7.0289116E0,1.5333565E1,5.9030867E0,8.927124E0,7.870036E0,0E0,0E0,0E0,0E0,0E0,0E0,0E0,0E0],"parents":[2147483647,0,0,1,1,2,2,3,3,4,4,5,5,6,6],"right_children":[2,4,6,8,10,12,14,-1,-1,-1,-1,-1,-1,-1,-1],"split_conditions":[3.2786885E-1,4.48E0,1.0909091E-1,1.2244898E-1,2.944619E-1,1.06E0,5.555556E-1,-1.5438157E-3,-7.949865E-3,-9.683325E-4,4.272417E-3,-2.1832066E-3,6.1454563E-3,5.049446E-3,2.1925676E-4],"split_indices":[18,16,21,21,23,10,17,0,0,0,0,0,0,0,0],"split_type":[0,0,0,0,0,0,0,0,0,0,0,0,0,0,0],"sum_hessian":[6.610906E2,3.894526E2,2.7163797E2,2.990931E2,9.035952E1,1.265678E2,1.4507018E2,2.5617096E2,4.2922123E1,3.3797405E1,5.656211E1,1.4010874E1,1.1255693E2,5.1992672E1,9.307751E1],"tree_param":{"num_deleted":"0","num_feature":"28","num_nodes":"15","size_leaf_vector":"1"}},{"base_weights":[4.8621833E-2,-5.0477123E-1,2.0766053E-1,-6.1174303E-1,-3.9224267E-2,4.007214E-3,3.913296E-1,-7.51849E-3,-1.3570415E-3,3.4127785E-3,-7.038134E-3,2.3848084E-3,-1.6760265E-3,2.5913832E-3,6.3547287E-3],"categories":[],"categories_nodes":[],"categories_segments":[],"categories_sizes":[],"default_left":[0,0,0,0,0,0,0,0,0,0,0,0,0,0,0],"id":40,"left_children":[1,3,5,7,9,11,13,-1,-1,-1,-1,-1,-1,-1,-1],"loss_changes":[5.9125996E1,7.445797E0,1.950943E1,8.028233E0,7.5974483E0,1.0033573E1,8.686527E0,0E0,0E0,0E0,0E0,0E0,0E0,0E0,0E0],"parents":[2147483647,0,0,1,1,2,2,3,3,4,4,5,5,6,6],"right_children":[2,4,6,8,10,12,14,-1,-1,-1,-1,-1,-1,-1,-1],"split_conditions":[2.972973E-1,2.797272E-1,4.5238096E-1,4.19E0,4.14E0,8.53E0,3.859649E-1,-7.51849E-3,-1.3570415E-3,3.4127785E-3,-7.038134E-3,2.3848084E-3,-1.6760265E-3,2.5913832E-3,6.3547287E-3],"split_indices":[19,25,19,14,14,12,18,0,0,0,0,0,0,0,0],"split_type":[0,0,0,0,0,0,0,0,0,0,0,0,0,0,0],"sum_hessian":[6.69612E2,1.489946E2,5.2061743E2,1.20900475E2,2.8094128E1,2.4736241E2,2.7325504E2,9.296111E1,2.793936E1,1.8174837E1,9.919291E0,1.04370056E2,1.4299234E2,1.786088E2,9.464623E1],"tree_param":{"num_deleted":"0","num_feature":"28","num_nodes":"15","size_leaf_vector":"1"}},{"base_weights":[2.8547714E-2,-1.889528E-1,3.4453037E-1,-4.9574992E-1,-5.185094E-2,1.6020788E-1,4.7894016E-1,-6.47723E-3,-3.9836546E-4,1.7273105E-3,-2.0237355E-3,5.3761073E-4,6.389908E-3,9.904969E-3,3.9666863E-3],"categories":[],"categories_nodes":[],"categories_segments":[],"categories_sizes":[],"default_left":[0,0,0,0,0,0,0,0,0,0,0,0,0,0,0],"id":41,"left_children":[1,3,5,7,9,11,13,-1,-1,-1,-1,-1,-1,-1,-1],"loss_changes":[4.645113E1,1.6816612E1,6.7493477E0,8.534813E0,9.427865E0,5.963814E0,6.291847E0,0E0,0E0,0E0,0E0,0E0,0E0,0E0,0E0],"parents":[2147483647,0,0,1,1,2,2,3,3,4,4,5,5,6,6],"right_children":[2,4,6,8,10,12,14,-1,-1,-1,-1,-1,-1,-1,-1],"split_conditions":[4.5238096E-1,2.7272728E-1,1.17E0,4.43E0,4E-1,1.3513513E-1,2.2E0,-6.47723E-3,-3.9836546E-4,1.7273105E-3,-2.0237355E-3,5.3761073E-4,6.389908E-3,9.904969E-3,3.9666863E-3],"split_indices":[19,19,10,16,17,21,13,0,0,0,0,0,0,0,0],"split_type":[0,0,0,0,0,0,0,0,0,0,0,0,0,0,0],"sum_hessian":[6.739377E2,3.994121E2,2.7452554E2,1.2255378E2,2.7685834E2,1.1669208E2,1.5783345E2,9.15995E1,3.0954279E1,1.1103899E2,1.6581937E2,9.637706E1,2.0315023E1,2.0337482E1,1.3749597E2],"tree_param":{"num_deleted":"0","num_feature":"28","num_nodes":"15","size_leaf_vector":"1"}},{"base_weights":[-7.2001982E-3,-2.2483933E-1,2.6421902E-1,-5.275179E-1,-1.0419571E-1,6.7365474E-1,1.7033726E-1,-1.1616675E-2,-4.0938547E-3,1.1241088E-3,-2.4455283E-3,8.589425E-3,2.383603E-3,-1.791916E-4,3.473144E-3],"categories":[],"categories_nodes":[],"categories_segments":[],"categories_sizes":[],"default_left":[0,0,0,0,0,0,0,0,0,0,0,0,0,0,0],"id":42,"left_children":[1,3,5,7,9,11,13,-1,-1,-1,-1,-1,-1,-1,-1],"loss_changes":[4.0018433E1,1.3673685E1,1.147418E1,7.532675E0,8.237944E0,4.3036785E0,8.22204E0,0E0,0E0,0E0,0E0,0E0,0E0,0E0,0E0],"parents":[2147483647,0,0,1,1,2,2,3,3,4,4,5,5,6,6],"right_children":[2,4,6,8,10,12,14,-1,-1,-1,-1,-1,-1,-1,-1],"split_conditions":[4.390244E-1,2.6190478E-1,7.56E0,1.08E0,8.42E0,2.567042E-1,2.311228E-1,-1.1616675E-2,-4.0938547E-3,1.1241088E-3,-2.4455283E-3,8.589425E-3,2.383603E-3,-1.791916E-4,3.473144E-3],"split_indices":[19,19,12,10,12,25,25,0,0,0,0,0,0,0,0],"split_type":[0,0,0,0,0,0,0,0,0,0,0,0,0,0,0],"sum_hessian":[6.754525E2,3.7496008E2,3.004924E2,1.0589964E2,2.6906046E2,5.489772E1,2.4559467E2,1.5242486E1,9.065716E1,1.058721E2,1.6318835E2,3.7824196E1,1.7073526E1,1.1944057E2,1.26154106E2],"tree_param":{"num_deleted":"0","num_feature":"28","num_nodes":"15","size_leaf_vector":"1"}},{"base_weights":[-1.4174665E-2,-2.157951E-1,2.7511176E-1,-1.172722E0,-1.690589E-1,6.041896E-1,1.3871802E-1,-1.2783716E-2,1.6032159E-3,-1.2851519E-3,-9.875079E-3,3.475861E-3,7.9465825E-3,-1.6296671E-4,4.122126E-3],"categories":[],"categories_nodes":[],"categories_segments":[],"categories_sizes":[],"default_left":[0,0,0,0,0,0,0,0,0,0,0,0,0,0,0],"id":43,"left_children":[1,3,5,7,9,11,13,-1,-1,-1,-1,-1,-1,-1,-1],"loss_changes":[3.9627224E1,1.7705708E1,1.2441629E1,2.8066292E0,1.2577387E1,3.7057934E0,8.425997E0,0E0,0E0,0E0,0E0,0E0,0E0,0E0,0E0],"parents":[2147483647,0,0,1,1,2,2,3,3,4,4,5,5,6,6],"right_children":[2,4,6,8,10,12,14,-1,-1,-1,-1,-1,-1,-1,-1],"split_conditions":[3.2786885E-1,1.5384616E-1,4.5E0,4E0,1.521739E-1,2.2865579E-1,1.0447594E-1,-1.2783716E-2,1.6032159E-3,-1.2851519E-3,-9.875079E-3,3.475861E-3,7.9465825E-3,-1.6296671E-4,4.122126E-3],"split_indices":[18,18,6,8,21,25,26,0,0,0,0,0,0,0,0],"split_type":[0,0,0,0,0,0,0,0,0,0,0,0,0,0,0],"sum_hessian":[6.773907E2,3.9932916E2,2.7806152E2,1.7473133E1,3.8185605E2,8.047336E1,1.9758817E2,1.6228003E1,1.2451309E0,3.6493518E2,1.6920862E1,3.5488033E1,4.498533E1,1.2671018E2,7.087798E1],"tree_param":{"num_deleted":"0","num_feature":"28","num_nodes":"15","size_leaf_vector":"1"}},{"base_weights":[-2.7312763E-2,-5.8136815E-1,9.993711E-2,-7.838272E-1,-2.0338714E-1,-1.2276587E-2,4.6028528E-1,-4.935786E-3,-1.0860496E-2,-3.5665026E-3,7.6319193E-3,-8.8241976E-4,2.4744922E-3,5.8652246E-3,3.703559E-4],"categories":[],"categories_nodes":[],"categories_segments":[],"categories_sizes":[],"default_left":[0,0,0,0,0,0,0,0,0,0,0,0,0,0,0],"id":44,"left_children":[1,3,5,7,9,11,13,-1,-1,-1,-1,-1,-1,-1,-1],"loss_changes":[4.6939575E1,9.355957E0,2.1906204E1,6.5359955E0,6.897252E0,8.189624E0,6.851269E0,0E0,0E0,0E0,0E0,0E0,0E0,0E0,0E0],"parents":[2147483647,0,0,1,1,2,2,3,3,4,4,5,5,6,6],"right_children":[2,4,6,8,10,12,14,-1,-1,-1,-1,-1,-1,-1,-1],"split_conditions":[2.777778E-1,1.24E0,3.7777779E-1,2E-1,9.333333E0,4.22E0,6.662E5,-4.935786E-3,-1.0860496E-2,-3.5665026E-3,7.6319193E-3,-8.8241976E-4,2.4744922E-3,5.8652246E-3,3.703559E-4],"split_indices":[19,10,18,17,7,14,1,0,0,0,0,0,0,0,0],"split_type":[0,0,0,0,0,0,0,0,0,0,0,0,0,0,0],"sum_hessian":[6.639526E2,1.2334231E2,5.406103E2,7.962098E1,4.372133E1,4.129745E2,1.2763579E2,4.1958252E1,3.7662727E1,3.8282227E1,5.4391046E0,3.2003107E2,9.294341E1,9.801606E1,2.9619734E1],"tree_param":{"num_deleted":"0","num_feature":"28","num_nodes":"15","size_leaf_vector":"1"}},{"base_weights":[-1.0742921E-2,-2.112187E-1,2.5524583E-1,-3.1695822E-1,1.460209E-1,5.486608E-1,1.7444621E-1,-5.5817864E-3,-1.8416272E-3,5.9607932E-3,-5.342964E-4,1.8435814E-3,7.4223853E-3,3.1439005E-3,-1.711926E-4],"categories":[],"categories_nodes":[],"categories_segments":[],"categories_sizes":[],"default_left":[0,0,0,0,0,0,0,0,0,0,0,0,0,0,0],"id":45,"left_children":[1,3,5,7,9,11,13,-1,-1,-1,-1,-1,-1,-1,-1],"loss_changes":[3.5906693E1,1.4549307E1,6.765684E0,9.397112E0,7.9645143E0,4.2371273E0,6.128188E0,0E0,0E0,0E0,0E0,0E0,0E0,0E0,0E0],"parents":[2147483647,0,0,1,1,2,2,3,3,4,4,5,5,6,6],"right_children":[2,4,6,8,10,12,14,-1,-1,-1,-1,-1,-1,-1,-1],"split_conditions":[4.4444445E-1,4.52E0,7.65E0,2.857143E-1,2.0512821E-1,5.121951E-1,3.2410368E-1,-5.5817864E-3,-1.8416272E-3,5.9607932E-3,-5.342964E-4,1.8435814E-3,7.4223853E-3,3.1439005E-3,-1.711926E-4],"split_indices":[19,16,12,19,20,19,23,0,0,0,0,0,0,0,0],"split_type":[0,0,0,0,0,0,0,0,0,0,0,0,0,0,0],"sum_hessian":[6.713534E2,3.829385E2,2.8841492E2,2.9556644E2,8.737208E1,6.10237E1,2.2739122E2,1.0380442E2,1.9176201E2,2.621947E1,6.115261E1,2.185193E1,3.917177E1,1.3102943E2,9.636178E1],"tree_param":{"num_deleted":"0","num_feature":"28","num_nodes":"15","size_leaf_vector":"1"}},{"base_weights":[1.5235223E-2,-6.547583E-2,2.618949E-1,-3.2239848E-1,9.568952E-3,9.00977E-2,4.9835053E-1,6.921847E-3,-4.0588723E-3,1.1829955E-3,-1.1078482E-3,3.6475906E-4,9.569159E-3,-3.4690825E-3,6.489375E-3],"categories":[],"categories_nodes":[],"categories_segments":[],"categories_sizes":[],"default_left":[0,0,0,0,0,0,0,0,0,0,0,0,0,0,0],"id":46,"left_children":[1,3,5,7,9,11,13,-1,-1,-1,-1,-1,-1,-1,-1],"loss_changes":[1.35253315E1,9.875561E0,6.758774E0,1.0088306E1,5.211685E0,4.5307026E0,9.168051E0,0E0,0E0,0E0,0E0,0E0,0E0,0E0,0E0],"parents":[2147483647,0,0,1,1,2,2,3,3,4,4,5,5,6,6],"right_children":[2,4,6,8,10,12,14,-1,-1,-1,-1,-1,-1,-1,-1],"split_conditions":[4.48E0,3E-1,5.555556E-1,3E0,9.756097E-2,3.0793807E-1,5.02043E5,6.921847E-3,-4.0588723E-3,1.1829955E-3,-1.1078482E-3,3.6475906E-4,9.569159E-3,-3.4690825E-3,6.489375E-3],"split_indices":[16,17,17,4,21,25,1,0,0,0,0,0,0,0,0],"split_type":[0,0,0,0,0,0,0,0,0,0,0,0,0,0,0],"sum_hessian":[6.775249E2,5.1103912E2,1.6648573E2,1.1478074E2,3.962584E2,9.7226616E1,6.9259125E1,8.172695E0,1.0660804E2,2.0819075E2,1.8806764E2,9.2543884E1,4.6827297E0,1.0275888E1,5.8983234E1],"tree_param":{"num_deleted":"0","num_feature":"28","num_nodes":"15","size_leaf_vector":"1"}},{"base_weights":[5.4133697E-3,-4.2355162E-1,1.5679042E-1,-6.0425806E-1,-1.9022745E-1,3.3867943E-1,-1.3557889E-2,4.849231E-3,-6.7005362E-3,-4.8450283E-3,3.1996309E-3,1.3733658E-3,5.4813237E-3,-2.7334832E-3,1.7802228E-3],"categories":[],"categories_nodes":[],"categories_segments":[],"categories_sizes":[],"default_left":[0,0,0,0,0,0,0,0,0,0,0,0,0,0,0],"id":47,"left_children":[1,3,5,7,9,11,13,-1,-1,-1,-1,-1,-1,-1,-1],"loss_changes":[4.4017162E1,7.340231E0,1.5528449E1,7.432823E0,1.1960636E1,1.0144688E1,1.2973087E1,0E0,0E0,0E0,0E0,0E0,0E0,0E0,0E0],"parents":[2147483647,0,0,1,1,2,2,3,3,4,4,5,5,6,6],"right_children":[2,4,6,8,10,12,14,-1,-1,-1,-1,-1,-1,-1,-1],"split_conditions":[3.0769232E-1,2.5641027E-1,8.83E0,6.666667E-1,4.08E0,3.409091E-1,4.4444445E-1,4.849231E-3,-6.7005362E-3,-4.8450283E-3,3.1996309E-3,1.3733658E-3,5.4813237E-3,-2.7334832E-3,1.7802228E-3],"split_indices":[19,18,12,8,14,18,19,0,0,0,0,0,0,0,0],"split_type":[0,0,0,0,0,0,0,0,0,0,0,0,0,0,0],"sum_hessian":[6.758375E2,1.7581721E2,5.0002032E2,9.818469E1,7.7632515E1,2.4134093E2,2.586794E2,5.2304015E0,9.295429E1,4.9266304E1,2.8366215E1,1.2389698E2,1.17443954E2,1.09612976E2,1.4906642E2],"tree_param":{"num_deleted":"0","num_feature":"28","num_nodes":"15","size_leaf_vector":"1"}},{"base_weights":[-1.1587973E-2,-2.3160864E-1,2.824371E-1,2.5219763E-2,-4.06916E-1,6.9923365E-1,2.0360152E-1,-6.621474E-4,6.08622E-3,-4.916489E-3,6.6525396E-4,4.756738E-3,1.3790743E-2,6.302215E-3,1.2441067E-3],"categories":[],"categories_nodes":[],"categories_segments":[],"categories_sizes":[],"default_left":[0,0,0,0,0,0,0,0,0,0,0,0,0,0,0],"id":48,"left_children":[1,3,5,7,9,11,13,-1,-1,-1,-1,-1,-1,-1,-1],"loss_changes":[4.4268036E1,1.7631487E1,9.482105E0,8.559897E0,9.366169E0,6.362566E0,8.290943E0,0E0,0E0,0E0,0E0,0E0,0E0,0E0,0E0],"parents":[2147483647,0,0,1,1,2,2,3,3,4,4,5,5,6,6],"right_children":[2,4,6,8,10,12,14,-1,-1,-1,-1,-1,-1,-1,-1],"split_conditions":[4.4444445E-1,8.52E0,3.475666E-1,3.4146342E-1,9.333333E0,6.25E-1,7.36E0,-6.621474E-4,6.08622E-3,-4.916489E-3,6.6525396E-4,4.756738E-3,1.3790743E-2,6.302215E-3,1.2441067E-3],"split_indices":[19,12,24,18,7,19,12,0,0,0,0,0,0,0,0],"split_type":[0,0,0,0,0,0,0,0,0,0,0,0,0,0,0],"sum_hessian":[6.822823E2,3.9037482E2,2.9190747E2,1.5871323E2,2.3166158E2,4.5179264E1,2.467282E2,1.3797536E2,2.0737871E1,1.9646188E2,3.51997E1,3.527806E1,9.901205E0,3.75389E1,2.091893E2],"tree_param":{"num_deleted":"0","num_feature":"28","num_nodes":"15","size_leaf_vector":"1"}},{"base_weights":[-7.846207E-3,-2.047498E-1,2.8579652E-1,-6.933744E-1,-1.2286891E-1,6.2703246E-1,1.940041E-1,-1.2036287E-2,-4.623602E-3,9.373744E-4,-2.7144607E-3,7.2373278E-3,-5.831851E-3,2.8882122E-3,-7.1414944E-4],"categories":[],"categories_nodes":[],"categories_segments":[],"categories_sizes":[],"default_left":[0,0,0,0,0,0,0,0,0,0,0,0,0,0,0],"id":49,"left_children":[1,3,5,7,9,11,13,-1,-1,-1,-1,-1,-1,-1,-1],"loss_changes":[3.925084E1,1.6172102E1,8.413855E0,6.2925625E0,1.1264848E1,7.1296787E0,5.4611826E0,0E0,0E0,0E0,0E0,0E0,0E0,0E0,0E0],"parents":[2147483647,0,0,1,1,2,2,3,3,4,4,5,5,6,6],"right_children":[2,4,6,8,10,12,14,-1,-1,-1,-1,-1,-1,-1,-1],"split_conditions":[4.5238096E-1,2.0930232E-1,7.65E0,3.64E0,8.42E0,1.1E1,6E0,-1.2036287E-2,-4.623602E-3,9.373744E-4,-2.7144607E-3,7.2373278E-3,-5.831851E-3,2.8882122E-3,-7.1414944E-4],"split_indices":[19,18,12,16,12,3,4,0,0,0,0,0,0,0,0],"split_type":[0,0,0,0,0,0,0,0,0,0,0,0,0,0,0],"sum_hessian":[6.7684143E2,4.0534085E2,2.7150058E2,5.7104046E1,3.482368E2,5.631607E1,2.151845E2,1.6484215E1,4.061983E1,1.4183246E2,2.0640434E2,5.252142E1,3.7946506E0,1.5848122E2,5.6703285E1],"tree_param":{"num_deleted":"0","num_feature":"28","num_nodes":"15","size_leaf_vector":"1"}},{"base_weights":[1.1357431E-2,-2.1021992E-1,2.9572842E-1,1.09451815E-1,-3.7714574E-1,1.9457443E-1,5.246282E-1,-3.7189492E-4,8.16734E-3,-6.5753055E-3,-2.0283412E-3,-6.085542E-4,3.4239646E-3,-4.3302835E-3,6.233457E-3],"categories":[],"categories_nodes":[],"categories_segments":[],"categories_sizes":[],"default_left":[0,0,0,0,0,0,0,0,0,0,0,0,0,0,0],"id":50,"left_children":[1,3,5,7,9,11,13,-1,-1,-1,-1,-1,-1,-1,-1],"loss_changes":[4.272215E1,2.0378119E1,6.772808E0,1.3670719E1,1.2114502E1,7.856004E0,8.81699E0,0E0,0E0,0E0,0E0,0E0,0E0,0E0,0E0],"parents":[2147483647,0,0,1,1,2,2,3,3,4,4,5,5,6,6],"right_children":[2,4,6,8,10,12,14,-1,-1,-1,-1,-1,-1,-1,-1],"split_conditions":[4.390244E-1,8.36E0,3.888889E-1,3.392857E-1,2.8947368E-1,2.2133838E-1,4.7727272E-1,-3.7189492E-4,8.16734E-3,-6.5753055E-3,-2.0283412E-3,-6.085542E-4,3.4239646E-3,-4.3302835E-3,6.233457E-3],"split_indices":[19,12,18,18,19,25,19,0,0,0,0,0,0,0,0],"split_type":[0,0,0,0,0,0,0,0,0,0,0,0,0,0,0],"sum_hessian":[6.760332E2,3.8011465E2,2.9591855E2,1.305153E2,2.4959937E2,2.0650928E2,8.940926E1,1.08887085E2,2.1628214E1,9.4623245E1,1.5497612E2,7.591679E1,1.305925E2,8.03877E0,8.137049E1],"tree_param":{"num_deleted":"0","num_feature":"28","num_nodes":"15","size_leaf_vector":"1"}},{"base_weights":[1.8838318E-2,-2.0438462E-1,3.0036065E-1,-8.903632E-1,-1.4523345E-1,9.500864E-2,4.3257523E-1,-1.5349223E-2,-5.6760055E-3,-4.361346E-3,-4.6466853E-4,1.6292596E-3,-8.931978E-3,3.2988307E-3,6.731906E-3],"categories":[],"categories_nodes":[],"categories_segments":[],"categories_sizes":[],"default_left":[0,0,0,0,0,0,0,0,0,0,0,0,0,0,0],"id":51,"left_children":[1,3,5,7,9,11,13,-1,-1,-1,-1,-1,-1,-1,-1],"loss_changes":[4.2070374E1,1.5023656E1,7.996563E0,5.255615E0,9.891809E0,8.013681E0,4.220886E0,0E0,0E0,0E0,0E0,0E0,0E0,0E0,0E0],"parents":[2147483647,0,0,1,1,2,2,3,3,4,4,5,5,6,6],"right_children":[2,4,6,8,10,12,14,-1,-1,-1,-1,-1,-1,-1,-1],"split_conditions":[4.390244E-1,1.8421052E-1,8.555411E-2,3.64E0,1.3333334E0,1.25E0,2.5500247E-1,-1.5349223E-2,-5.6760055E-3,-4.361346E-3,-4.6466853E-4,1.6292596E-3,-8.931978E-3,3.2988307E-3,6.731906E-3],"split_indices":[19,18,26,16,5,22,25,0,0,0,0,0,0,0,0],"split_type":[0,0,0,0,0,0,0,0,0,0,0,0,0,0,0],"sum_hessian":[6.674832E2,3.7244244E2,2.9504077E2,2.845034E1,3.439921E2,1.1623162E2,1.7880914E2,8.239811E0,2.021053E1,8.63237E1,2.576684E2,1.09538414E2,6.693212E0,1.26984474E2,5.1824665E1],"tree_param":{"num_deleted":"0","num_feature":"28","num_nodes":"15","size_leaf_vector":"1"}},{"base_weights":[-1.7336423E-2,-2.1670534E-1,3.141408E-1,-5.103314E-1,-9.925085E-2,1.172069E-1,6.715593E-1,-1.0316131E-2,-4.034044E-3,3.3750624E-4,-3.0776125E-3,4.5395284E-3,-1.682019E-4,7.3498962E-3,-6.8451874E-3],"categories":[],"categories_nodes":[],"categories_segments":[],"categories_sizes":[],"default_left":[0,0,0,0,0,0,0,0,0,0,0,0,0,0,0],"id":52,"left_children":[1,3,5,7,9,11,13,-1,-1,-1,-1,-1,-1,-1,-1],"loss_changes":[4.4978878E1,1.46046295E1,1.7914974E1,6.337946E0,8.46229E0,7.5012097E0,8.296505E0,0E0,0E0,0E0,0E0,0E0,0E0,0E0,0E0],"parents":[2147483647,0,0,1,1,2,2,3,3,4,4,5,5,6,6],"right_children":[2,4,6,8,10,12,14,-1,-1,-1,-1,-1,-1,-1,-1],"split_conditions":[3.3962265E-1,2.7272728E-1,1.0418495E-1,1.08E0,9.863334E-2,4.5E0,3.9556083E-1,-1.0316131E-2,-4.034044E-3,3.3750624E-4,-3.0776125E-3,4.5395284E-3,-1.682019E-4,7.3498962E-3,-6.8451874E-3],"split_indices":[18,19,26,10,26,6,23,0,0,0,0,0,0,0,0],"split_type":[0,0,0,0,0,0,0,0,0,0,0,0,0,0,0],"sum_hessian":[6.7857855E2,4.2394226E2,2.546363E2,1.2017363E2,3.0376865E2,1.6503285E2,8.960346E1,1.8982727E1,1.011909E2,1.8597795E2,1.1779068E2,4.6304577E1,1.1872827E2,8.6037094E1,3.566368E0],"tree_param":{"num_deleted":"0","num_feature":"28","num_nodes":"15","size_leaf_vector":"1"}},{"base_weights":[1.6401201E-2,-1.9338702E-1,3.071974E-1,-6.497016E-1,-1.0284152E-1,1.8521349E-1,5.244995E-1,-8.302523E-3,-1.0295016E-3,-1.6365473E-3,3.1846857E-3,2.7003163E-3,-2.0711767E-3,-9.096643E-3,5.7625333E-3],"categories":[],"categories_nodes":[],"categories_segments":[],"categories_sizes":[],"default_left":[0,0,0,0,0,0,0,0,0,0,0,0,0,0,0],"id":53,"left_children":[1,3,5,7,9,11,13,-1,-1,-1,-1,-1,-1,-1,-1],"loss_changes":[4.1732864E1,1.6354326E1,7.5016594E0,6.392048E0,8.579451E0,6.2170515E0,8.13361E0,0E0,0E0,0E0,0E0,0E0,0E0,0E0,0E0],"parents":[2147483647,0,0,1,1,2,2,3,3,4,4,5,5,6,6],"right_children":[2,4,6,8,10,12,14,-1,-1,-1,-1,-1,-1,-1,-1],"split_conditions":[3.265306E-1,2.2222222E-1,1.0418495E-1,4.19E0,2.865459E-1,3.38874E-1,3E-1,-8.302523E-3,-1.0295016E-3,-1.6365473E-3,3.1846857E-3,2.7003163E-3,-2.0711767E-3,-9.096643E-3,5.7625333E-3],"split_indices":[18,19,26,11,25,23,19,0,0,0,0,0,0,0,0],"split_type":[0,0,0,0,0,0,0,0,0,0,0,0,0,0,0],"sum_hessian":[6.8210846E2,3.9644052E2,2.856679E2,6.461753E1,3.31823E2,1.8414775E2,1.01520164E2,4.8186615E1,1.6430912E1,2.9050253E2,4.132048E1,1.5166994E2,3.247782E1,2.958544E0,9.856162E1],"tree_param":{"num_deleted":"0","num_feature":"28","num_nodes":"15","size_leaf_vector":"1"}},{"base_weights":[2.3418311E-2,-1.8466635E-1,2.9377735E-1,-8.4159724E-2,-4.5243812E-1,8.0778724E-1,2.326448E-1,-1.6743334E-3,3.7279283E-3,1.6618049E-3,-5.836718E-3,9.750576E-3,8.0042024E-4,1.104616E-3,4.8059067E-3],"categories":[],"categories_nodes":[],"categories_segments":[],"categories_sizes":[],"default_left":[0,0,0,0,0,0,0,0,0,0,0,0,0,0,0],"id":54,"left_children":[1,3,5,7,9,11,13,-1,-1,-1,-1,-1,-1,-1,-1],"loss_changes":[3.8305748E1,1.0318837E1,9.116447E0,1.0756433E1,8.604691E0,3.703947E0,8.006382E0,0E0,0E0,0E0,0E0,0E0,0E0,0E0,0E0],"parents":[2147483647,0,0,1,1,2,2,3,3,4,4,5,5,6,6],"right_children":[2,4,6,8,10,12,14,-1,-1,-1,-1,-1,-1,-1,-1],"split_conditions":[4.390244E-1,2.89E-1,3.2207778E-1,3.392857E-1,2.92E0,5E-1,3.859649E-1,-1.6743334E-3,3.7279283E-3,1.6618049E-3,-5.836718E-3,9.750576E-3,8.0042024E-4,1.104616E-3,4.8059067E-3],"split_indices":[19,15,24,18,9,22,18,0,0,0,0,0,0,0,0],"split_type":[0,0,0,0,0,0,0,0,0,0,0,0,0,0,0],"sum_hessian":[6.789351E2,3.8383185E2,2.9510324E2,2.8003616E2,1.037957E2,3.0068651E1,2.650346E2,2.3740567E2,4.263048E1,1.8118963E1,8.5676735E1,2.417277E1,5.8958826E0,1.7851244E2,8.652216E1],"tree_param":{"num_deleted":"0","num_feature":"28","num_nodes":"15","size_leaf_vector":"1"}},{"base_weights":[-3.0818429E-2,-2.1436313E-1,2.852089E-1,-6.651109E-1,-1.4295332E-1,1.5193294E-1,5.1534706E-1,-7.7920184E-3,5.003802E-3,8.843158E-5,-4.227053E-3,2.741778E-3,-3.758098E-3,3.8674076E-3,9.885705E-3],"categories":[],"categories_nodes":[],"categories_segments":[],"categories_sizes":[],"default_left":[0,0,0,0,0,0,0,0,0,0,0,0,0,0,0],"id":55,"left_children":[1,3,5,7,9,11,13,-1,-1,-1,-1,-1,-1,-1,-1],"loss_changes":[3.8638588E1,1.3465366E1,7.429512E0,8.014729E0,1.5501459E1,1.0194815E1,5.0554886E0,0E0,0E0,0E0,0E0,0E0,0E0,0E0,0E0],"parents":[2147483647,0,0,1,1,2,2,3,3,4,4,5,5,6,6],"right_children":[2,4,6,8,10,12,14,-1,-1,-1,-1,-1,-1,-1,-1],"split_conditions":[3.4042552E-1,2.0689656E-1,1.0418495E-1,4.65E0,9.803922E-2,3.3918485E-1,4.65E0,-7.7920184E-3,5.003802E-3,8.843158E-5,-4.227053E-3,2.741778E-3,-3.758098E-3,3.8674076E-3,9.885705E-3],"split_indices":[18,18,26,11,21,23,16,0,0,0,0,0,0,0,0],"split_type":[0,0,0,0,0,0,0,0,0,0,0,0,0,0,0],"sum_hessian":[6.640695E2,4.202913E2,2.4377821E2,5.6341656E1,3.6394965E2,1.5542802E2,8.835018E1,5.161997E1,4.7216845E0,2.365587E2,1.2739093E2,1.2658637E2,2.8841652E1,7.089935E1,1.7450829E1],"tree_param":{"num_deleted":"0","num_feature":"28","num_nodes":"15","size_leaf_vector":"1"}},{"base_weights":[-1.4356802E-2,-2.3814096E-1,2.7905157E-1,-3.5537288E-1,1.5221493E-1,1.4156461E-1,4.5723516E-1,-2.8986393E-3,-8.023071E-3,8.64846E-4,1.37347765E-2,-1.5500357E-4,5.057435E-3,1.5266564E-3,6.3049844E-3],"categories":[],"categories_nodes":[],"categories_segments":[],"categories_sizes":[],"default_left":[0,0,0,0,0,0,0,0,0,0,0,0,0,0,0],"id":56,"left_children":[1,3,5,7,9,11,13,-1,-1,-1,-1,-1,-1,-1,-1],"loss_changes":[4.384084E1,1.7386713E1,7.013378E0,8.304306E0,6.9595213E0,9.419273E0,6.5206947E0,0E0,0E0,0E0,0E0,0E0,0E0,0E0,0E0],"parents":[2147483647,0,0,1,1,2,2,3,3,4,4,5,5,6,6],"right_children":[2,4,6,8,10,12,14,-1,-1,-1,-1,-1,-1,-1,-1],"split_conditions":[4.4444445E-1,4.51E0,3.91E0,4.24E0,1E1,2.5532112E-1,5.121951E-1,-2.8986393E-3,-8.023071E-3,8.64846E-4,1.37347765E-2,-1.5500357E-4,5.057435E-3,1.5266564E-3,6.3049844E-3],"split_indices":[19,16,11,9,3,25,19,0,0,0,0,0,0,0,0],"split_type":[0,0,0,0,0,0,0,0,0,0,0,0,0,0,0],"sum_hessian":[6.656812E2,3.777543E2,2.8792688E2,2.905775E2,8.717681E1,1.635363E2,1.2439059E2,2.5486891E2,3.5708588E1,8.374057E1,3.4362364E0,1.1492729E2,4.8609005E1,4.5786415E1,7.860417E1],"tree_param":{"num_deleted":"0","num_feature":"28","num_nodes":"15","size_leaf_vector":"1"}},{"base_weights":[1.0713202E-2,-2.051173E-1,2.7703938E-1,4.5443304E-2,-3.8219687E-1,6.539245E-1,2.0651513E-1,-6.335948E-4,6.9934553E-3,-6.9609857E-3,-2.7360814E-3,7.2288313E-3,-6.3677933E-3,5.856039E-3,1.3405528E-3],"categories":[],"categories_nodes":[],"categories_segments":[],"categories_sizes":[],"default_left":[0,0,0,0,0,0,0,0,0,0,0,0,0,0,0],"id":57,"left_children":[1,3,5,7,9,11,13,-1,-1,-1,-1,-1,-1,-1,-1],"loss_changes":[3.853506E1,1.644859E1,7.8408012E0,1.1018062E1,7.209236E0,4.6291924E0,6.905033E0,0E0,0E0,0E0,0E0,0E0,0E0,0E0,0E0],"parents":[2147483647,0,0,1,1,2,2,3,3,4,4,5,5,6,6],"right_children":[2,4,6,8,10,12,14,-1,-1,-1,-1,-1,-1,-1,-1],"split_conditions":[4.390244E-1,8.52E0,3.475666E-1,3.4146342E-1,2.830093E-1,5E0,7.36E0,-6.335948E-4,6.9934553E-3,-6.9609857E-3,-2.7360814E-3,7.2288313E-3,-6.3677933E-3,5.856039E-3,1.3405528E-3],"split_indices":[19,12,24,18,23,8,12,0,0,0,0,0,0,0,0],"split_type":[0,0,0,0,0,0,0,0,0,0,0,0,0,0,0],"sum_hessian":[6.684043E2,3.6932968E2,2.9907462E2,1.5324187E2,2.160878E2,4.583858E1,2.5323602E2,1.321556E2,2.1086264E1,5.4148422E1,1.6193938E2,4.3931385E1,1.9071962E0,3.9500286E1,2.1373573E2],"tree_param":{"num_deleted":"0","num_feature":"28","num_nodes":"15","size_leaf_vector":"1"}},{"base_weights":[3.1549255E-3,-3.7837347E-1,1.353923E-1,-1.5471055E-1,-6.220018E-1,-1.5003845E-2,2.8384534E-1,-2.9452145E-3,3.5466866E-3,-7.3907506E-3,4.6535002E-5,-6.530211E-4,8.009898E-3,6.8530417E-3,1.8429477E-3],"categories":[],"categories_nodes":[],"categories_segments":[],"categories_sizes":[],"default_left":[0,0,0,0,0,0,0,0,0,0,0,0,0,0,0],"id":58,"left_children":[1,3,5,7,9,11,13,-1,-1,-1,-1,-1,-1,-1,-1],"loss_changes":[3.36639E1,9.262127E0,1.10668125E1,6.576015E0,6.0098877E0,1.0193266E1,9.841206E0,0E0,0E0,0E0,0E0,0E0,0E0,0E0,0E0],"parents":[2147483647,0,0,1,1,2,2,3,3,4,4,5,5,6,6],"right_children":[2,4,6,8,10,12,14,-1,-1,-1,-1,-1,-1,-1,-1],"split_conditions":[2.6415095E-1,5.3333335E0,3.3962265E-1,4.27E0,7E0,3.7847933E-1,7.56E0,-2.9452145E-3,3.5466866E-3,-7.3907506E-3,4.6535002E-5,-6.530211E-4,8.009898E-3,6.8530417E-3,1.8429477E-3],"split_indices":[18,4,18,11,3,23,12,0,0,0,0,0,0,0,0],"split_type":[0,0,0,0,0,0,0,0,0,0,0,0,0,0,0],"sum_hessian":[6.652265E2,1.7074252E2,4.9448398E2,8.987127E1,8.087126E1,2.4608098E2,2.48403E2,7.0847374E1,1.9023897E1,6.7989845E1,1.2881418E1,2.326597E2,1.3421291E1,4.8188526E1,2.0021448E2],"tree_param":{"num_deleted":"0","num_feature":"28","num_nodes":"15","size_leaf_vector":"1"}},{"base_weights":[1.3912985E-3,-1.7183572E-1,2.88398E-1,-4.628553E-1,-5.446244E-2,5.743223E-1,1.7071934E-1,-1.3589998E-2,-3.7629672E-3,5.103981E-4,-3.3015194E-3,3.1341647E-3,7.849967E-3,4.998506E-3,5.1953923E-4],"categories":[],"categories_nodes":[],"categories_segments":[],"categories_sizes":[],"default_left":[0,0,0,0,0,0,0,0,0,0,0,0,0,0,0],"id":59,"left_children":[1,3,5,7,9,11,13,-1,-1,-1,-1,-1,-1,-1,-1],"loss_changes":[3.3440845E1,1.4302607E1,8.420244E0,8.8294735E0,8.743712E0,3.7880688E0,7.0403256E0,0E0,0E0,0E0,0E0,0E0,0E0,0E0,0E0],"parents":[2147483647,0,0,1,1,2,2,3,3,4,4,5,5,6,6],"right_children":[2,4,6,8,10,12,14,-1,-1,-1,-1,-1,-1,-1,-1],"split_conditions":[3.3962265E-1,2.777778E-1,4.5E0,1.7857143E-1,9.803922E-2,2.5E-1,5.555556E-1,-1.3589998E-2,-3.7629672E-3,5.103981E-4,-3.3015194E-3,3.1341647E-3,7.849967E-3,4.998506E-3,5.1953923E-4],"split_indices":[18,19,6,20,21,22,17,0,0,0,0,0,0,0,0],"split_type":[0,0,0,0,0,0,0,0,0,0,0,0,0,0,0],"sum_hessian":[6.706229E2,4.1845795E2,2.5216501E2,1.1942005E2,2.9903787E2,7.2392426E1,1.7977258E2,9.223934E0,1.1019612E2,2.1686266E2,8.217523E1,3.3452038E1,3.8940388E1,4.681812E1,1.3295447E2],"tree_param":{"num_deleted":"0","num_feature":"28","num_nodes":"15","size_leaf_vector":"1"}},{"base_weights":[2.1735879E-2,-3.5496584E-1,1.3102171E-1,-2.6816106E-1,-8.04812E-1,8.67078E-3,2.9204476E-1,1.4344984E-3,-4.3246164E-3,-1.1057037E-2,-1.06274325E-4,2.2932854E-3,-1.4819993E-3,1.1275931E-5,4.064083E-3],"categories":[],"categories_nodes":[],"categories_segments":[],"categories_sizes":[],"default_left":[0,0,0,0,0,0,0,0,0,0,0,0,0,0,0],"id":60,"left_children":[1,3,5,7,9,11,13,-1,-1,-1,-1,-1,-1,-1,-1],"loss_changes":[2.8176888E1,5.794838E0,1.0446607E1,8.8894E0,5.818573E0,1.0501823E1,7.6173744E0,0E0,0E0,0E0,0E0,0E0,0E0,0E0,0E0],"parents":[2147483647,0,0,1,1,2,2,3,3,4,4,5,5,6,6],"right_children":[2,4,6,8,10,12,14,-1,-1,-1,-1,-1,-1,-1,-1],"split_conditions":[2.972973E-1,3.5E0,4.857143E-1,8.06E0,4.5861322E-1,8.53E0,7.873155E-2,1.4344984E-3,-4.3246164E-3,-1.1057037E-2,-1.06274325E-4,2.2932854E-3,-1.4819993E-3,1.1275931E-5,4.064083E-3],"split_indices":[19,8,19,12,24,12,26,0,0,0,0,0,0,0,0],"split_type":[0,0,0,0,0,0,0,0,0,0,0,0,0,0,0],"sum_hessian":[6.823043E2,1.5292679E2,5.2937756E2,1.295284E2,2.339839E1,3.014098E2,2.2796779E2,3.698909E1,9.2539314E1,1.6684793E1,6.7135963E0,1.2504992E2,1.7635986E2,6.4613716E1,1.6335406E2],"tree_param":{"num_deleted":"0","num_feature":"28","num_nodes":"15","size_leaf_vector":"1"}},{"base_weights":[2.4933683E-2,-4.124724E-1,1.2348377E-1,3.15474E-1,-4.995893E-1,7.7376924E-2,6.686614E-1,-7.8058597E-3,5.937209E-3,-1.0483984E-2,-3.985874E-3,2.3509115E-3,-5.4733624E-4,2.376277E-4,8.366312E-3],"categories":[],"categories_nodes":[],"categories_segments":[],"categories_sizes":[],"default_left":[0,0,0,0,0,0,0,0,0,0,0,0,0,0,0],"id":61,"left_children":[1,3,5,7,9,11,13,-1,-1,-1,-1,-1,-1,-1,-1],"loss_changes":[2.914095E1,8.041437E0,1.3811592E1,4.702773E0,5.7580986E0,1.0631749E1,4.624546E0,0E0,0E0,0E0,0E0,0E0,0E0,0E0,0E0],"parents":[2147483647,0,0,1,1,2,2,3,3,4,4,5,5,6,6],"right_children":[2,4,6,8,10,12,14,-1,-1,-1,-1,-1,-1,-1,-1],"split_conditions":[2.5E-1,3.6666667E0,4.1935483E-1,2.4390243E-2,1.5789473E-1,9.259259E-2,7.4659504E-2,-7.8058597E-3,5.937209E-3,-1.0483984E-2,-3.985874E-3,2.3509115E-3,-5.4733624E-4,2.376277E-4,8.366312E-3],"split_indices":[18,6,18,21,18,21,26,0,0,0,0,0,0,0,0],"split_type":[0,0,0,0,0,0,0,0,0,0,0,0,0,0,0],"sum_hessian":[6.7384204E2,1.2331842E2,5.505236E2,1.2900543E1,1.1041788E2,5.0864807E2,4.1875534E1,2.2463665E0,1.0654177E1,1.5704591E1,9.471329E1,2.3150125E2,2.7714682E2,8.888964E0,3.2986572E1],"tree_param":{"num_deleted":"0","num_feature":"28","num_nodes":"15","size_leaf_vector":"1"}},{"base_weights":[-4.4660963E-2,-2.6589856E-1,2.3916008E-1,-5.617301E-1,-1.2729084E-1,7.97037E-2,4.098153E-1,-6.359474E-3,3.043041E-4,8.4124575E-4,-2.807064E-3,-7.46418E-4,3.6284504E-3,6.4643044E-3,1.3922357E-3],"categories":[],"categories_nodes":[],"categories_segments":[],"categories_sizes":[],"default_left":[0,0,0,0,0,0,0,0,0,0,0,0,0,0,0],"id":62,"left_children":[1,3,5,7,9,11,13,-1,-1,-1,-1,-1,-1,-1,-1],"loss_changes":[4.2628284E1,1.5567896E1,8.061911E0,5.354473E0,8.489386E0,6.801635E0,9.094177E0,0E0,0E0,0E0,0E0,0E0,0E0,0E0,0E0],"parents":[2147483647,0,0,1,1,2,2,3,3,4,4,5,5,6,6],"right_children":[2,4,6,8,10,12,14,-1,-1,-1,-1,-1,-1,-1,-1],"split_conditions":[4.390244E-1,2.7272728E-1,1E0,7.5E0,3.3333334E-1,3.809524E-1,8.95E0,-6.359474E-3,3.043041E-4,8.4124575E-4,-2.807064E-3,-7.46418E-4,3.6284504E-3,6.4643044E-3,1.3922357E-3],"split_indices":[19,19,27,6,17,18,12,0,0,0,0,0,0,0,0],"split_type":[0,0,0,0,0,0,0,0,0,0,0,0,0,0,0],"sum_hessian":[6.7686926E2,3.8040662E2,2.9646262E2,1.2039469E2,2.6001193E2,1.540184E2,1.4244423E2,1.0692011E2,1.3474577E1,1.0952789E2,1.5048404E2,1.0015724E2,5.3861153E1,7.525212E1,6.719211E1],"tree_param":{"num_deleted":"0","num_feature":"28","num_nodes":"15","size_leaf_vector":"1"}},{"base_weights":[1.4397063E-3,-2.0974909E-1,2.6975837E-1,-5.1054597E-1,-6.957656E-2,5.442746E-1,1.9381799E-1,-1.31299775E-2,-4.453569E-3,1.9503827E-3,-2.3628233E-3,6.177923E-3,-6.149697E-3,2.3044249E-4,3.3399633E-3],"categories":[],"categories_nodes":[],"categories_segments":[],"categories_sizes":[],"default_left":[0,0,0,0,0,0,0,0,0,0,0,0,0,0,0],"id":63,"left_children":[1,3,5,7,9,11,13,-1,-1,-1,-1,-1,-1,-1,-1],"loss_changes":[3.8172054E1,1.5857992E1,6.079468E0,5.6750355E0,1.1439776E1,5.8117886E0,5.5927706E0,0E0,0E0,0E0,0E0,0E0,0E0,0E0,0E0],"parents":[2147483647,0,0,1,1,2,2,3,3,4,4,5,5,6,6],"right_children":[2,4,6,8,10,12,14,-1,-1,-1,-1,-1,-1,-1,-1],"split_conditions":[4.390244E-1,2.7272728E-1,7.65E0,1.7857143E-1,8.48E0,1.1E1,2.2898352E-1,-1.31299775E-2,-4.453569E-3,1.9503827E-3,-2.3628233E-3,6.177923E-3,-6.149697E-3,2.3044249E-4,3.3399633E-3],"split_indices":[19,19,12,20,12,3,25,0,0,0,0,0,0,0,0],"split_type":[0,0,0,0,0,0,0,0,0,0,0,0,0,0,0],"sum_hessian":[6.716351E2,3.7594995E2,2.9568515E2,1.1866465E2,2.5728528E2,6.2735607E1,2.3294954E2,7.4775486E0,1.111871E2,9.937529E1,1.5791E2,5.943349E1,3.3021166E0,1.0553943E2,1.2741011E2],"tree_param":{"num_deleted":"0","num_feature":"28","num_nodes":"15","size_leaf_vector":"1"}},{"base_weights":[-2.8313363E-3,-1.8733765E-1,2.630918E-1,-1.444341E-1,-7.961909E-1,4.57096E-1,3.168224E-2,-4.321065E-3,-2.4639812E-4,-1.025944E-2,1.9274543E-3,2.8207498E-3,7.5100674E-3,1.6323634E-3,-6.814452E-3],"categories":[],"categories_nodes":[],"categories_segments":[],"categories_sizes":[],"default_left":[0,0,0,0,0,0,0,0,0,0,0,0,0,0,0],"id":64,"left_children":[1,3,5,7,9,11,13,-1,-1,-1,-1,-1,-1,-1,-1],"loss_changes":[3.2946964E1,1.0240562E1,1.233452E1,1.2793751E1,6.0767136E0,7.4812164E0,1.1980255E1,0E0,0E0,0E0,0E0,0E0,0E0,0E0,0E0],"parents":[2147483647,0,0,1,1,2,2,3,3,4,4,5,5,6,6],"right_children":[2,4,6,8,10,12,14,-1,-1,-1,-1,-1,-1,-1,-1],"split_conditions":[3.2786885E-1,1.4634146E-1,8.96E0,2.4324325E-1,2.7693835E-1,1.0418495E-1,5.2874565E-1,-4.321065E-3,-2.4639812E-4,-1.025944E-2,1.9274543E-3,2.8207498E-3,7.5100674E-3,1.6323634E-3,-6.814452E-3],"split_indices":[18,21,12,18,25,26,24,0,0,0,0,0,0,0,0],"split_type":[0,0,0,0,0,0,0,0,0,0,0,0,0,0,0],"sum_hessian":[6.6949866E2,3.95431E2,2.7406766E2,3.7055652E2,2.4874472E1,1.4855229E2,1.25515366E2,1.081763E2,2.6238022E2,2.0154654E1,4.7198186E0,9.43359E1,5.4216385E1,1.066181E2,1.8897266E1],"tree_param":{"num_deleted":"0","num_feature":"28","num_nodes":"15","size_leaf_vector":"1"}},{"base_weights":[-1.033184E-2,-4.687485E-1,9.988535E-2,-5.849637E-1,2.0336358E-2,-3.145229E-2,2.9335833E-1,-1.06827494E-4,-7.0298235E-3,2.7110395E-3,-6.7436616E-3,1.3156513E-3,-2.2506835E-3,1.9410424E-3,6.0893805E-3],"categories":[],"categories_nodes":[],"categories_segments":[],"categories_sizes":[],"default_left":[0,0,0,0,0,0,0,0,0,0,0,0,0,0,0],"id":65,"left_children":[1,3,5,7,9,11,13,-1,-1,-1,-1,-1,-1,-1,-1],"loss_changes":[3.423113E1,7.475731E0,1.3889887E1,7.1860085E0,4.743333E0,1.0328014E1,6.8034153E0,0E0,0E0,0E0,0E0,0E0,0E0,0E0,0E0],"parents":[2147483647,0,0,1,1,2,2,3,3,4,4,5,5,6,6],"right_children":[2,4,6,8,10,12,14,-1,-1,-1,-1,-1,-1,-1,-1],"split_conditions":[2.857143E-1,2.797272E-1,4.871795E-1,7.36E0,8E-1,4.4444445E-1,4.4E0,-1.06827494E-4,-7.0298235E-3,2.7110395E-3,-6.7436616E-3,1.3156513E-3,-2.2506835E-3,1.9410424E-3,6.0893805E-3],"split_indices":[19,25,19,12,22,17,11,0,0,0,0,0,0,0,0],"split_type":[0,0,0,0,0,0,0,0,0,0,0,0,0,0,0],"sum_hessian":[6.755767E2,1.303152E2,5.452615E2,1.0513681E2,2.5178396E1,3.2528302E2,2.1997847E2,1.8108936E1,8.702787E1,1.8948345E1,6.230051E0,1.7676991E2,1.4851312E2,1.6857457E2,5.1403904E1],"tree_param":{"num_deleted":"0","num_feature":"28","num_nodes":"15","size_leaf_vector":"1"}},{"base_weights":[2.081164E-2,2.8638574E-1,-5.0316967E-2,3.1349477E-1,-9.4655776E-1,-6.3422797E-3,-3.0937356E-1,4.820689E-3,1.203264E-3,4.0217983E-5,-1.47127E-2,-7.383614E-3,1.3086875E-4,-4.956445E-3,5.3772586E-3],"categories":[],"categories_nodes":[],"categories_segments":[],"categories_sizes":[],"default_left":[0,0,0,0,0,0,0,0,0,0,0,0,0,0,0],"id":66,"left_children":[1,3,5,7,9,11,13,-1,-1,-1,-1,-1,-1,-1,-1],"loss_changes":[1.2854488E1,5.1011944E0,6.1153774E0,4.5464897E0,1.6724992E0,6.553214E0,1.2559109E1,0E0,0E0,0E0,0E0,0E0,0E0,0E0,0E0],"parents":[2147483647,0,0,1,1,2,2,3,3,4,4,5,5,6,6],"right_children":[2,4,6,8,10,12,14,-1,-1,-1,-1,-1,-1,-1,-1],"split_conditions":[7.65E0,2E0,3.1914893E-1,4.5E0,7.54717E-2,7.82E0,7.5E0,4.820689E-3,1.203264E-3,4.0217983E-5,-1.47127E-2,-7.383614E-3,1.3086875E-4,-4.956445E-3,5.3772586E-3],"split_indices":[12,22,20,6,21,12,6,0,0,0,0,0,0,0,0],"split_type":[0,0,0,0,0,0,0,0,0,0,0,0,0,0,0],"sum_hessian":[6.787319E2,1.4274312E2,5.359888E2,1.4040181E2,2.3413124E0,4.5908405E2,7.690473E1,7.4175095E1,6.6226715E1,1.1856675E0,1.1556448E0,1.091317E1,4.4817087E2,6.3382317E1,1.3522414E1],"tree_param":{"num_deleted":"0","num_feature":"28","num_nodes":"15","size_leaf_vector":"1"}},{"base_weights":[-7.435488E-3,-1.8577947E-1,2.4058264E-1,1.5811859E-2,-3.1085268E-1,8.709106E-1,1.8557109E-1,-8.6413417E-4,5.7642465E-3,-2.357139E-3,-9.027514E-3,1.0919049E-2,2.2989744E-3,3.6935755E-3,4.781736E-4],"categories":[],"categories_nodes":[],"categories_segments":[],"categories_sizes":[],"default_left":[0,0,0,0,0,0,0,0,0,0,0,0,0,0,0],"id":67,"left_children":[1,3,5,7,9,11,13,-1,-1,-1,-1,-1,-1,-1,-1],"loss_changes":[3.006171E1,9.97243E0,9.696461E0,8.778645E0,1.0639423E1,2.9433346E0,6.6343765E0,0E0,0E0,0E0,0E0,0E0,0E0,0E0,0E0],"parents":[2147483647,0,0,1,1,2,2,3,3,4,4,5,5,6,6],"right_children":[2,4,6,8,10,12,14,-1,-1,-1,-1,-1,-1,-1,-1],"split_conditions":[4.4444445E-1,8.42E0,3.1125212E-1,3.4146342E-1,3.6363637E-1,1.1290322E-1,6.666667E-1,-8.6413417E-4,5.7642465E-3,-2.357139E-3,-9.027514E-3,1.0919049E-2,2.2989744E-3,3.6935755E-3,4.781736E-4],"split_indices":[19,12,24,18,20,21,17,0,0,0,0,0,0,0,0],"split_type":[0,0,0,0,0,0,0,0,0,0,0,0,0,0,0],"sum_hessian":[6.7761835E2,3.943218E2,2.8329654E2,1.5131227E2,2.4300952E2,2.1549448E1,2.617471E2,1.2869176E2,2.2620518E1,2.1687631E2,2.6133204E1,1.5501706E1,6.0477414E0,1.1141697E2,1.5033012E2],"tree_param":{"num_deleted":"0","num_feature":"28","num_nodes":"15","size_leaf_vector":"1"}},{"base_weights":[4.023555E-3,-1.6293007E-1,2.4275443E-1,-1.23846605E-1,-9.562572E-1,6.1062723E-1,1.3220651E-1,-3.895119E-3,2.8913311E-5,3.853865E-3,-1.21101625E-2,7.16171E-3,-1.8732229E-3,5.860898E-4,5.132093E-3],"categories":[],"categories_nodes":[],"categories_segments":[],"categories_sizes":[],"default_left":[0,0,0,0,0,0,0,0,0,0,0,0,0,0,0],"id":68,"left_children":[1,3,5,7,9,11,13,-1,-1,-1,-1,-1,-1,-1,-1],"loss_changes":[2.7161285E1,1.2316035E1,1.1324163E1,1.2908602E1,6.851677E0,5.5683537E0,6.052462E0,0E0,0E0,0E0,0E0,0E0,0E0,0E0,0E0],"parents":[2147483647,0,0,1,1,2,2,3,3,4,4,5,5,6,6],"right_children":[2,4,6,8,10,12,14,-1,-1,-1,-1,-1,-1,-1,-1],"split_conditions":[3.2786885E-1,1.509434E-1,7.65E0,2.5E-1,7.580751E-2,6.63903E5,3.52E0,-3.895119E-3,2.8913311E-5,3.853865E-3,-1.21101625E-2,7.16171E-3,-1.8732229E-3,5.860898E-4,5.132093E-3],"split_indices":[18,21,12,18,26,1,13,0,0,0,0,0,0,0,0],"split_type":[0,0,0,0,0,0,0,0,0,0,0,0,0,0,0],"sum_hessian":[6.794764E2,4.000345E2,2.794419E2,3.8235385E2,1.7680647E1,6.352492E1,2.1591698E2,1.2282254E2,2.595313E2,2.7397082E0,1.4940939E1,5.6194614E1,7.330308E0,1.8192812E2,3.398885E1],"tree_param":{"num_deleted":"0","num_feature":"28","num_nodes":"15","size_leaf_vector":"1"}},{"base_weights":[-1.5317232E-2,2.7582392E-1,-8.76826E-2,5.515451E-1,1.11082286E-1,1.5386793E-1,-1.4240335E-1,-7.19694E-3,6.026813E-3,1.9832477E-3,-6.848612E-3,2.3302392E-3,-2.3762663E-3,-3.8703282E-3,-6.7128305E-4],"categories":[],"categories_nodes":[],"categories_segments":[],"categories_sizes":[],"default_left":[0,0,0,0,0,0,0,0,0,0,0,0,0,0,0],"id":69,"left_children":[1,3,5,7,9,11,13,-1,-1,-1,-1,-1,-1,-1,-1],"loss_changes":[1.424125E1,6.0516253E0,7.175703E0,3.6894264E0,6.072622E0,3.1680307E0,8.109164E0,0E0,0E0,0E0,0E0,0E0,0E0,0E0,0E0],"parents":[2147483647,0,0,1,1,2,2,3,3,4,4,5,5,6,6],"right_children":[2,4,6,8,10,12,14,-1,-1,-1,-1,-1,-1,-1,-1],"split_conditions":[7.65E0,2.0454545E-1,1.3333334E0,2E0,4.86E0,1.4E-1,1.09E0,-7.19694E-3,6.026813E-3,1.9832477E-3,-6.848612E-3,2.3302392E-3,-2.3762663E-3,-3.8703282E-3,-6.7128305E-4],"split_indices":[12,20,8,6,14,21,10,0,0,0,0,0,0,0,0],"split_type":[0,0,0,0,0,0,0,0,0,0,0,0,0,0,0],"sum_hessian":[6.738008E2,1.3357774E2,5.40223E2,4.9082497E1,8.449525E1,9.944353E1,4.4077948E2,1.3924457E0,4.7690052E1,7.682533E1,7.66991E0,8.3055405E1,1.6388126E1,1.0274296E2,3.3803653E2],"tree_param":{"num_deleted":"0","num_feature":"28","num_nodes":"15","size_leaf_vector":"1"}},{"base_weights":[-2.3950849E-2,-2.0681715E-1,2.3645583E-1,-1.6330017E-1,-1.0737213E0,7.073854E-2,5.384454E-1,-4.67225E-3,-5.806688E-4,9.4980205E-4,-1.3210037E-2,5.151609E-3,-4.1820455E-4,8.738288E-3,3.0838838E-3],"categories":[],"categories_nodes":[],"categories_segments":[],"categories_sizes":[],"default_left":[0,0,0,0,0,0,0,0,0,0,0,0,0,0,0],"id":70,"left_children":[1,3,5,7,9,11,13,-1,-1,-1,-1,-1,-1,-1,-1],"loss_changes":[3.2407066E1,1.4904221E1,1.40140505E1,1.2183849E1,5.5953236E0,9.148503E0,7.3951855E0,0E0,0E0,0E0,0E0,0E0,0E0,0E0,0E0],"parents":[2147483647,0,0,1,1,2,2,3,3,4,4,5,5,6,6],"right_children":[2,4,6,8,10,12,14,-1,-1,-1,-1,-1,-1,-1,-1],"split_conditions":[3.2786885E-1,1.521739E-1,1.0418495E-1,2.3255815E-1,7.580751E-2,7.65E0,1.1348435E-1,-4.67225E-3,-5.806688E-4,9.4980205E-4,-1.3210037E-2,5.151609E-3,-4.1820455E-4,8.738288E-3,3.0838838E-3],"split_indices":[18,21,26,18,26,12,26,0,0,0,0,0,0,0,0],"split_type":[0,0,0,0,0,0,0,0,0,0,0,0,0,0,0],"sum_hessian":[6.785134E2,3.9872275E2,2.7979068E2,3.8079587E2,1.792687E1,1.8145255E2,9.833814E1,9.705396E1,2.837419E2,3.238244E0,1.4688626E1,3.5946472E1,1.4550607E2,3.8871666E1,5.946648E1],"tree_param":{"num_deleted":"0","num_feature":"28","num_nodes":"15","size_leaf_vector":"1"}},{"base_weights":[-3.8532307E-3,-1.9352573E-1,2.799064E-1,-4.5581666E-1,-8.321965E-2,2.2042626E-1,6.711713E-1,-6.6857277E-3,-2.4081164E-3,9.543324E-4,-2.003333E-3,1.2730209E-3,4.599653E-3,9.034274E-3,-1.8305279E-4],"categories":[],"categories_nodes":[],"categories_segments":[],"categories_sizes":[],"default_left":[0,0,0,0,0,0,0,0,0,0,0,0,0,0,0],"id":71,"left_children":[1,3,5,7,9,11,13,-1,-1,-1,-1,-1,-1,-1,-1],"loss_changes":[3.6494854E1,1.1720228E1,6.1743526E0,5.3323936E0,6.0304585E0,5.2349663E0,5.6788597E0,0E0,0E0,0E0,0E0,0E0,0E0,0E0,0E0],"parents":[2147483647,0,0,1,1,2,2,3,3,4,4,5,5,6,6],"right_children":[2,4,6,8,10,12,14,-1,-1,-1,-1,-1,-1,-1,-1],"split_conditions":[4.5454547E-1,2.7272728E-1,4.65E0,1E0,4E-1,6.097561E-1,6.5E0,-6.6857277E-3,-2.4081164E-3,9.543324E-4,-2.003333E-3,1.2730209E-3,4.599653E-3,9.034274E-3,-1.8305279E-4],"split_indices":[19,19,11,27,17,19,4,0,0,0,0,0,0,0,0],"split_type":[0,0,0,0,0,0,0,0,0,0,0,0,0,0,0],"sum_hessian":[6.760668E2,4.0540277E2,2.70664E2,1.1909081E2,2.8631195E2,2.3630437E2,3.435965E1,5.8798122E1,6.029269E1,1.1344326E2,1.7286868E2,1.7125719E2,6.504718E1,2.5469664E1,8.889984E0],"tree_param":{"num_deleted":"0","num_feature":"28","num_nodes":"15","size_leaf_vector":"1"}},{"base_weights":[1.3263375E-2,-1.4706394E-1,2.158314E-1,7.46017E-2,-2.967351E-1,5.768744E-1,1.4935052E-1,7.6908735E-5,6.5081036E-3,-6.234371E-3,-1.9222966E-3,-2.0733308E-3,7.5733666E-3,6.0974457E-3,6.802588E-4],"categories":[],"categories_nodes":[],"categories_segments":[],"categories_sizes":[],"default_left":[0,0,0,0,0,0,0,0,0,0,0,0,0,0,0],"id":72,"left_children":[1,3,5,7,9,11,13,-1,-1,-1,-1,-1,-1,-1,-1],"loss_changes":[2.1935913E1,1.2532209E1,7.075613E0,5.8854275E0,7.572029E0,6.673855E0,9.443463E0,0E0,0E0,0E0,0E0,0E0,0E0,0E0,0E0],"parents":[2147483647,0,0,1,1,2,2,3,3,4,4,5,5,6,6],"right_children":[2,4,6,8,10,12,14,-1,-1,-1,-1,-1,-1,-1,-1],"split_conditions":[4.390244E-1,8.42E0,5E-1,2.933014E-1,2.8151456E-1,3.23E0,3.475666E-1,7.6908735E-5,6.5081036E-3,-6.234371E-3,-1.9222966E-3,-2.0733308E-3,7.5733666E-3,6.0974457E-3,6.802588E-4],"split_indices":[19,12,17,25,23,9,24,0,0,0,0,0,0,0,0],"split_type":[0,0,0,0,0,0,0,0,0,0,0,0,0,0,0],"sum_hessian":[6.734479E2,3.7607126E2,2.9737662E2,1.5178159E2,2.2428969E2,4.5048874E1,2.5232774E2,1.3689798E2,1.4883598E1,5.315437E1,1.7113531E2,8.399511E0,3.664936E1,3.690484E1,2.154229E2],"tree_param":{"num_deleted":"0","num_feature":"28","num_nodes":"15","size_leaf_vector":"1"}},{"base_weights":[-3.7971025E-3,-2.1906947E-1,2.5767538E-1,-3.1279346E-1,1.23542E-1,5.5910194E-1,1.7910357E-1,-6.892831E-3,-2.3797527E-3,5.077912E-3,-3.63327E-4,7.885958E-4,7.938822E-3,3.7464392E-3,1.1346188E-4],"categories":[],"categories_nodes":[],"categories_segments":[],"categories_sizes":[],"default_left":[0,0,0,0,0,0,0,0,0,0,0,0,0,0,0],"id":73,"left_children":[1,3,5,7,9,11,13,-1,-1,-1,-1,-1,-1,-1,-1],"loss_changes":[3.749894E1,1.1771021E1,7.024534E0,7.925129E0,4.883702E0,6.8975735E0,7.8717194E0,0E0,0E0,0E0,0E0,0E0,0E0,0E0,0E0],"parents":[2147483647,0,0,1,1,2,2,3,3,4,4,5,5,6,6],"right_children":[2,4,6,8,10,12,14,-1,-1,-1,-1,-1,-1,-1,-1],"split_conditions":[4.347826E-1,4.52E0,7.65E0,2.0930232E-1,2.0512821E-1,3.409091E-1,7E-1,-6.892831E-3,-2.3797527E-3,5.077912E-3,-3.63327E-4,7.885958E-4,7.938822E-3,3.7464392E-3,1.1346188E-4],"split_indices":[19,16,12,18,20,18,17,0,0,0,0,0,0,0,0],"split_type":[0,0,0,0,0,0,0,0,0,0,0,0,0,0,0],"sum_hessian":[6.6419727E2,3.643704E2,2.9982684E2,2.861727E2,7.819771E1,6.073029E1,2.3909657E2,4.6080425E1,2.4009225E2,2.2336674E1,5.5861034E1,2.0379652E1,4.0350636E1,1.0983643E2,1.2926013E2],"tree_param":{"num_deleted":"0","num_feature":"28","num_nodes":"15","size_leaf_vector":"1"}},{"base_weights":[-1.1856636E-3,-1.5026754E-1,2.4945992E-1,-3.2920267E-2,-3.9878032E-1,3.315696E-2,4.2046306E-1,-3.6918449E-3,1.0262887E-3,-2.361611E-3,-8.760274E-3,5.0916853E-3,-1.3328075E-3,4.571067E-3,-1.2065832E-2],"categories":[],"categories_nodes":[],"categories_segments":[],"categories_sizes":[],"default_left":[0,0,0,0,0,0,0,0,0,0,0,0,0,0,0],"id":74,"left_children":[1,3,5,7,9,11,13,-1,-1,-1,-1,-1,-1,-1,-1],"loss_changes":[2.5276329E1,1.2356078E1,9.317734E0,1.3219585E1,1.0344418E1,8.978818E0,8.946835E0,0E0,0E0,0E0,0E0,0E0,0E0,0E0,0E0],"parents":[2147483647,0,0,1,1,2,2,3,3,4,4,5,5,6,6],"right_children":[2,4,6,8,10,12,14,-1,-1,-1,-1,-1,-1,-1,-1],"split_conditions":[3.392857E-1,9.803922E-2,3.77E0,2.3255815E-1,8E-1,5.555556E-1,4.0043157E-1,-3.6918449E-3,1.0262887E-3,-2.361611E-3,-8.760274E-3,5.0916853E-3,-1.3328075E-3,4.571067E-3,-1.2065832E-2],"split_indices":[18,21,11,18,22,17,23,0,0,0,0,0,0,0,0],"split_type":[0,0,0,0,0,0,0,0,0,0,0,0,0,0,0],"sum_hessian":[6.744366E2,4.2315067E2,2.5128595E2,2.8819702E2,1.3495363E2,1.1147475E2,1.3981122E2,8.230209E1,2.0589494E2,1.0177068E2,3.3182938E1,2.8346003E1,8.312874E1,1.3743501E2,2.3761976E0],"tree_param":{"num_deleted":"0","num_feature":"28","num_nodes":"15","size_leaf_vector":"1"}},{"base_weights":[1.2950622E-2,1.0307869E-1,-2.1992409E-1,1.8944499E-1,-2.2606154E-1,4.818188E-1,-2.6751631E-1,3.037114E-4,3.179654E-3,-8.375187E-6,-4.381779E-3,6.7891073E-3,-7.212486E-3,-3.613796E-3,7.798242E-4],"categories":[],"categories_nodes":[],"categories_segments":[],"categories_sizes":[],"default_left":[0,0,0,0,0,0,0,0,0,0,0,0,0,0,0],"id":75,"left_children":[1,3,5,7,9,11,13,-1,-1,-1,-1,-1,-1,-1,-1],"loss_changes":[1.4224967E1,1.3930301E1,6.445407E0,7.913207E0,4.8726616E0,3.4225895E0,5.792944E0,0E0,0E0,0E0,0E0,0E0,0E0,0E0,0E0],"parents":[2147483647,0,0,1,1,2,2,3,3,4,4,5,5,6,6],"right_children":[2,4,6,8,10,12,14,-1,-1,-1,-1,-1,-1,-1,-1],"split_conditions":[2.89E-1,2.9268292E-1,2.39E0,8.986966E-2,8.48E0,3.4E-1,2.7227333E-1,3.037114E-4,3.179654E-3,-8.375187E-6,-4.381779E-3,6.7891073E-3,-7.212486E-3,-3.613796E-3,7.798242E-4],"split_indices":[15,20,9,26,12,20,25,0,0,0,0,0,0,0,0],"split_type":[0,0,0,0,0,0,0,0,0,0,0,0,0,0,0],"sum_hessian":[6.756689E2,4.8753757E2,1.881313E2,3.8653525E2,1.0100231E2,1.1369224E1,1.7676208E2,1.7328775E2,2.1324751E2,4.9474503E1,5.1527813E1,1.0143203E1,1.2260215E0,1.3896329E2,3.7798794E1],"tree_param":{"num_deleted":"0","num_feature":"28","num_nodes":"15","size_leaf_vector":"1"}},{"base_weights":[-6.078871E-4,-1.8713886E-1,2.6932028E-1,-1.3359173E-1,-9.785284E-1,1.4027855E-1,5.342619E-1,-5.2663726E-3,-6.429994E-4,-5.409226E-3,-1.4457328E-2,-2.1465895E-4,3.724155E-3,-1.6061196E-3,5.9657753E-3],"categories":[],"categories_nodes":[],"categories_segments":[],"categories_sizes":[],"default_left":[0,0,0,0,0,0,0,0,0,0,0,0,0,0,0],"id":76,"left_children":[1,3,5,7,9,11,13,-1,-1,-1,-1,-1,-1,-1,-1],"loss_changes":[3.363834E1,1.6611229E1,9.259018E0,1.0075586E1,4.3046036E0,6.9522862E0,3.9524555E0,0E0,0E0,0E0,0E0,0E0,0E0,0E0,0E0],"parents":[2147483647,0,0,1,1,2,2,3,3,4,4,5,5,6,6],"right_children":[2,4,6,8,10,12,14,-1,-1,-1,-1,-1,-1,-1,-1],"split_conditions":[3.2786885E-1,1.4634146E-1,4.33E0,2.0512821E-1,3.0232558E-1,1.0037089E-1,5.00779E5,-5.2663726E-3,-6.429994E-4,-5.409226E-3,-1.4457328E-2,-2.1465895E-4,3.724155E-3,-1.6061196E-3,5.9657753E-3],"split_indices":[18,21,16,18,18,26,1,0,0,0,0,0,0,0,0],"split_type":[0,0,0,0,0,0,0,0,0,0,0,0,0,0,0],"sum_hessian":[6.660897E2,3.9407504E2,2.7201465E2,3.7019562E2,2.3879433E1,1.8394997E2,8.806469E1,5.4493053E1,3.1570258E2,1.3444481E1,1.0434952E1,1.0894716E2,7.500281E1,7.117787E0,8.09469E1],"tree_param":{"num_deleted":"0","num_feature":"28","num_nodes":"15","size_leaf_vector":"1"}},{"base_weights":[-4.8783604E-2,-4.916706E-1,4.8286654E-2,-2.8340647E-1,-7.136053E-1,-1.009847E-1,2.0359957E-1,-1.219921E-2,-1.7576816E-3,-1.0525555E-2,-3.6783665E-3,-1.3880278E-3,7.3466944E-3,4.4745134E-4,4.8195897E-3],"categories":[],"categories_nodes":[],"categories_segments":[],"categories_sizes":[],"default_left":[0,0,0,0,0,0,0,0,0,0,0,0,0,0,0],"id":77,"left_children":[1,3,5,7,9,11,13,-1,-1,-1,-1,-1,-1,-1,-1],"loss_changes":[2.9121502E1,5.425911E0,1.2912249E1,6.2851195E0,6.444277E0,9.084006E0,1.2043451E1,0E0,0E0,0E0,0E0,0E0,0E0,0E0,0E0],"parents":[2147483647,0,0,1,1,2,2,3,3,4,4,5,5,6,6],"right_children":[2,4,6,8,10,12,14,-1,-1,-1,-1,-1,-1,-1,-1],"split_conditions":[2.7272728E-1,6.42547E5,3.2786885E-1,1.754386E-1,1E0,3.7847933E-1,1.0418495E-1,-1.219921E-2,-1.7576816E-3,-1.0525555E-2,-3.6783665E-3,-1.3880278E-3,7.3466944E-3,4.4745134E-4,4.8195897E-3],"split_indices":[19,1,18,20,27,23,26,0,0,0,0,0,0,0,0],"split_type":[0,0,0,0,0,0,0,0,0,0,0,0,0,0,0],"sum_hessian":[6.758313E2,1.20766075E2,5.5506525E2,6.347651E1,5.7289562E1,2.8321597E2,2.7184927E2,5.478337E0,5.7998173E1,2.7897797E1,2.9391764E1,2.717516E2,1.14644E1,1.7381633E2,9.803294E1],"tree_param":{"num_deleted":"0","num_feature":"28","num_nodes":"15","size_leaf_vector":"1"}},{"base_weights":[2.6978338E-2,-3.6948997E-1,1.3536109E-1,4.998175E-3,-5.1043314E-1,6.1518647E-2,4.2152905E-1,8.841659E-3,-1.5815978E-3,-6.0208277E-3,